<?xml version="1.0"?>
<opencv_storage>
<opencv_ml_svm>
  <format>3</format>
  <svmType>C_SVC</svmType>
  <kernel>
    <type>LINEAR</type></kernel>
  <C>1.</C>
  <term_criteria><iterations>1000</iterations></term_criteria>
  <var_count>4032</var_count>
  <class_count>2</class_count>
  <class_labels type_id="opencv-matrix">
    <rows>2</rows>
    <cols>1</cols>
    <dt>i</dt>
    <data>
      0 1</data></class_labels>
  <sv_total>1</sv_total>
  <support_vectors>
    <_>
      2.42166261e-005 4.39279438e-006 -2.54070528e-006 4.73219188e-006
      5.13863552e-006 9.51447419e-007 -1.26075986e-006 8.52291009e-007
      -2.42310171e-006 8.48960099e-007 2.61173932e-006 1.32524667e-006
      -1.74666255e-007 2.78180096e-006 6.92730009e-006 6.51901155e-006
      6.57367809e-006 6.52693461e-006 7.67474467e-006 1.00023317e-005
      1.39307886e-005 1.57550112e-005 1.39340646e-005 8.10437814e-006
      -1.23452878e-007 -1.87872104e-006 6.33117963e-007 5.69630311e-006
      1.12158077e-005 1.65236906e-005 1.24276712e-005 1.01230944e-005
      1.46597758e-005 2.17810539e-005 2.41524813e-005 2.16524440e-005
      2.04736498e-005 1.69516243e-005 1.22597094e-005 6.14926466e-006
      5.83236806e-006 8.98329927e-006 7.82388997e-006 5.55338693e-006
      4.00199315e-006 2.45955516e-006 8.62668301e-008 -8.47735393e-008
      8.78051310e-007 1.77775928e-006 4.54329302e-006 2.08441634e-006
      1.07328731e-006 2.92719392e-007 6.77405387e-006 1.47748133e-005
      1.42944009e-005 1.80601073e-005 2.00190589e-005 1.89644634e-005
      1.47820256e-005 1.24089693e-005 1.46196044e-005 1.48587505e-005
      1.46408011e-005 1.29300988e-005 1.63915374e-005 1.94086733e-005
      2.22823783e-005 2.29669204e-005 1.76102058e-005 1.15015036e-005
      7.57466569e-006 4.72418378e-006 3.20589993e-006 2.13777275e-006
      1.91611730e-006 1.28555052e-006 2.47298067e-006 -4.01515393e-007
      -2.98008695e-006 -2.65031167e-006 -4.30876162e-006
      -5.13221221e-006 -2.51202846e-006 -4.86439239e-006
      -3.07474443e-006 -1.82688507e-006 4.12142617e-006 9.02109332e-006
      1.20004361e-005 1.26399927e-005 1.44663281e-005 1.37852694e-005
      7.58992246e-006 2.96312442e-006 1.82766996e-006 6.50182665e-006
      8.29676719e-006 9.60378657e-006 9.99465556e-006 9.11666848e-006
      8.91083891e-006 1.10298861e-005 1.62232136e-005 2.01259700e-005
      2.22692670e-005 2.34718336e-005 2.29835787e-005 1.97373192e-005
      2.28001118e-005 2.21785376e-005 2.17640500e-005 1.65171587e-005
      1.20666582e-005 1.03875363e-005 7.93414347e-006 7.95273809e-006
      7.17157627e-006 9.92048081e-006 1.39654176e-005 1.42337030e-005
      1.21733328e-005 8.39174936e-006 8.06615753e-006 8.82092536e-006
      1.02925405e-005 1.07280757e-005 6.25706571e-006 -6.20684318e-007
      -2.99468070e-006 -2.31926924e-006 -4.15682371e-006
      -5.52420670e-006 -4.92124354e-006 -3.17904460e-006
      -2.21234586e-006 -6.29374244e-006 -1.31177976e-005
      -1.13832739e-005 -9.23002790e-006 -7.02716534e-006 5.01732848e-006
      2.64006412e-005 1.21605872e-005 -7.20370679e-007 -7.09923461e-006
      -7.95445067e-006 -8.28017528e-006 -1.16133979e-005
      -1.35559831e-005 -1.05618356e-005 -1.16281408e-005
      -1.26704072e-005 -9.63997536e-006 -1.11398494e-005
      -1.18506950e-005 -6.51407663e-006 -5.48614298e-006
      -4.91392939e-006 -6.13065095e-006 -4.14003898e-006
      -3.06982565e-006 -1.85756232e-006 -1.80339759e-006 2.88399519e-006
      3.54899726e-006 -9.77482728e-007 -6.08561913e-006 -1.00892630e-005
      -9.46584260e-006 -4.83223812e-006 -4.03456806e-006
      -4.24728881e-007 1.34574861e-006 5.50311086e-007 2.37400377e-006
      7.33687830e-006 1.58070507e-005 1.05014233e-005 6.23831056e-006
      6.40452117e-006 6.08164191e-006 -2.57122019e-006 -4.69363795e-006
      -5.72111776e-006 -6.58939234e-006 -8.07502511e-006
      -1.04540131e-005 -1.02149952e-005 -8.01277656e-006
      -4.49819663e-006 -4.46562217e-006 -5.19009018e-006
      -5.69169788e-006 -9.96522249e-006 -1.24162107e-005
      -1.43323114e-005 -9.53517610e-006 -6.24963059e-006
      -9.79153128e-007 3.26436589e-006 2.35025436e-006 -7.29666965e-007
      -9.45326008e-007 -3.31182105e-006 -2.45436922e-006
      -1.65777703e-006 -2.65703704e-007 -4.37269250e-007 2.10463242e-007
      1.78315520e-006 2.37402128e-006 6.19235925e-006 9.43117539e-006
      1.25022689e-006 -7.37881874e-006 -9.13729309e-006 -8.57885152e-006
      -8.25553980e-006 -9.43715349e-006 -9.03905948e-006
      -9.36944343e-006 -1.38160294e-005 -1.92401985e-005
      -2.33702413e-005 -2.20382881e-005 -2.42316801e-005
      -2.43692375e-005 -2.46988238e-005 -2.26922984e-005
      -1.96545116e-005 -1.67845064e-005 -8.47668343e-006
      -6.96636835e-006 -4.95917993e-006 -4.09164431e-006
      -4.09643508e-006 -1.54019926e-005 -2.14363718e-005
      -2.31906379e-005 -1.46061402e-005 -1.45736485e-005
      -1.27219928e-005 -8.58052590e-006 -8.09032372e-006
      -1.37509314e-005 -1.47806750e-005 -1.09376251e-005
      -4.17988576e-006 -6.24368795e-007 -9.00117755e-007
      -3.84869780e-009 -2.56837870e-006 -7.15786609e-006
      -7.13006966e-006 -5.69157828e-006 -1.07709584e-005
      -1.29656482e-005 -1.05369745e-005 -1.35575774e-005
      -7.15631541e-006 -5.00984470e-006 -6.85894611e-006
      -1.31037825e-006 -6.12739495e-006 -7.95182495e-006
      -6.55025860e-006 -3.99816463e-006 -8.20092737e-007
      -5.51471317e-007 9.15484350e-007 -7.05205139e-006 -1.52259381e-005
      -1.57896757e-005 -1.65583133e-005 -1.64253070e-005
      -1.34185784e-005 -1.35917844e-005 -8.39133918e-006
      -8.55059898e-006 -1.70877120e-005 -2.09810823e-005
      -1.78520950e-005 -1.56679835e-005 -1.77079619e-005
      -1.02416789e-005 1.25685019e-005 7.62358650e-006 -7.57649195e-006
      -1.14350787e-005 -1.49028037e-005 -2.02886113e-005
      -2.30751157e-005 -2.55327323e-005 -2.53935541e-005
      -1.80251827e-005 -1.45856766e-005 -1.08698705e-005
      -1.21221346e-005 -1.39928661e-005 -9.22104664e-006
      -4.80355175e-006 -5.83347401e-006 -1.37488742e-005
      -5.85082807e-006 8.44679653e-006 8.27185067e-006 7.33544948e-006
      3.37630786e-006 2.67818200e-006 -9.72520070e-007 -4.96683606e-006
      -1.34042266e-005 -1.24997687e-005 -1.41997871e-005
      -1.33493450e-005 -3.16078467e-006 1.83757811e-006 5.88760213e-006
      3.31799970e-006 3.60660181e-007 -3.17049489e-006 -2.46007289e-006
      1.32161927e-006 3.62638093e-006 3.61158413e-007 -6.37274661e-006
      -9.46340060e-006 -1.08448739e-005 -1.13049555e-005
      -1.13054975e-005 -7.76282195e-006 -8.84659494e-006
      -1.00535635e-005 -4.51820597e-006 -3.61403727e-006
      -6.13374141e-006 -6.36938557e-006 -9.72948692e-006
      -1.69340346e-005 -1.26103168e-005 -8.60776709e-006
      -7.86969667e-006 -1.06008374e-005 -7.50905929e-006
      -8.04533283e-006 -9.79845208e-006 -8.87604529e-006
      -1.06802026e-005 -1.11383497e-005 -1.17444206e-005
      -1.20015438e-005 -1.35070213e-005 -1.12425041e-005
      -9.00706618e-006 -6.84792985e-006 -7.08404468e-006
      -8.80476455e-006 -1.11628169e-005 -1.43421457e-005
      -1.54545960e-005 -1.43802363e-005 -1.16168103e-005
      -1.14032900e-005 -1.09025304e-005 -7.11913435e-006
      -1.40740303e-005 -1.83045431e-005 -2.29211091e-005
      -2.63100719e-005 -3.04309815e-005 -3.72127797e-005
      -3.01651580e-005 -2.17804554e-005 -1.97070112e-005
      -1.31994348e-005 -7.78394860e-006 -5.79205062e-006
      -5.73795251e-006 -1.63112941e-006 7.95680808e-006 9.46948421e-006
      8.86955240e-006 2.75858952e-007 -6.94972005e-006 -6.75161482e-006
      -6.52526614e-006 -9.09428036e-006 -1.21092389e-005
      -8.81665255e-006 -4.84707925e-006 2.60153797e-006 1.27757930e-005
      1.07219821e-005 7.20940534e-006 5.35247500e-006 4.95692029e-006
      2.82755082e-006 2.40035405e-007 -3.52268307e-006 -8.88547584e-006
      -1.02166305e-005 -5.81738095e-006 -4.30149976e-006
      -8.02670547e-006 -1.12898724e-005 -8.72663804e-006
      -3.75340687e-006 -2.26662701e-006 -4.03820741e-006
      -2.37126187e-006 3.77728412e-007 1.03431466e-006 -1.22221866e-006
      5.59165665e-006 5.98728002e-006 -9.23832658e-007 -8.05195486e-006
      -1.72339387e-005 -1.85544322e-005 -2.22578474e-005
      -2.23618281e-005 -2.01444254e-005 -2.02601259e-005
      -2.08918518e-005 -2.70798446e-005 -2.28971112e-005
      -1.98500566e-005 -1.76595677e-005 -1.25553952e-005 9.28863210e-006
      1.19100123e-005 -9.26868597e-006 -1.27535486e-005 -1.46752600e-005
      -2.41051002e-005 -2.63677230e-005 -3.11815566e-005
      -2.93073463e-005 -1.47653582e-005 -1.37186844e-005
      -1.40340680e-005 -1.65602778e-005 -1.51258155e-005
      -9.61239130e-006 -5.89559431e-006 -5.64447919e-006
      -6.04156685e-006 3.92554284e-006 1.54885711e-005 1.57637987e-005
      1.01740879e-005 3.65577534e-006 -6.49991489e-006 -3.11719782e-006
      -7.62951822e-006 -1.82315925e-005 -1.68780698e-005
      -1.98436355e-005 -1.74734596e-005 -1.14561374e-006 5.44354680e-006
      1.30563285e-005 7.87465524e-006 2.88992351e-006 -2.01713351e-006
      2.82420024e-006 1.23815953e-005 1.35281525e-005 1.19181741e-005
      1.05091567e-005 8.87247006e-006 4.84963948e-006 8.30116331e-009
      4.97980363e-006 6.09451672e-006 6.62296952e-006 3.26924828e-006
      -1.72860905e-006 -1.54367467e-006 2.97088604e-006 2.04088474e-006
      -4.04277944e-006 -1.77564816e-005 -1.48255594e-005
      -5.64214588e-006 -3.91941421e-006 -1.00462521e-005
      -1.32473788e-005 -1.36597710e-005 -2.03457948e-005
      -1.73669905e-005 -1.44719688e-005 -1.25734450e-005
      -9.48386423e-006 -7.89015212e-006 -1.09799039e-005
      -1.19228489e-005 -1.10566452e-005 -6.57628243e-006
      -6.35946753e-006 -7.90594277e-006 -3.92180664e-006
      -4.23273423e-006 -1.11292666e-005 -1.44625146e-005
      -1.84387336e-005 -1.04785122e-005 -3.01530213e-006
      -4.27185478e-006 -1.15616967e-005 -1.01324349e-005
      -6.29330452e-006 -1.01839933e-005 -1.51588783e-005
      -2.30063615e-005 -1.53628243e-005 -3.28803935e-006
      -4.22138783e-007 4.14408942e-006 4.53445227e-006 3.23685890e-006
      9.46835007e-006 1.78711471e-005 1.93227443e-005 1.19064589e-005
      6.09399103e-006 9.68133827e-006 2.58496402e-006 -3.54863892e-006
      -8.00674025e-006 -1.16374722e-005 -1.01184751e-005 2.12296027e-006
      5.73425177e-006 1.11518639e-005 1.41827477e-005 1.32449268e-005
      4.71039721e-006 3.80083037e-007 -1.62165213e-006 2.37401938e-008
      -6.28931218e-008 6.89083265e-007 5.85850876e-006 8.86605449e-006
      8.96356505e-006 1.29873151e-005 1.49203070e-005 3.08845597e-006
      -3.48065532e-006 -1.62443064e-006 1.32737307e-006 7.19623472e-007
      1.79277583e-006 2.58078762e-006 2.92823142e-006 1.62617005e-006
      1.02622353e-005 1.83328430e-005 9.60119360e-006 -1.13085880e-005
      -2.52787268e-005 -2.27841774e-005 -2.08368729e-005
      -2.54715051e-005 -2.49732457e-005 -2.71488370e-005
      -2.78360676e-005 -3.04947334e-005 -2.23257084e-005
      -1.28228694e-005 -9.58192959e-006 -1.65440633e-006 1.65440870e-005
      1.21543862e-005 -5.83214523e-006 -6.17614842e-006 -9.19723971e-006
      -1.73199951e-005 -2.09804875e-005 -2.20507209e-005
      -2.29416073e-005 -8.53212441e-006 -1.12436628e-005
      -1.00818525e-005 -1.22377387e-005 -9.42328097e-006
      -1.68895258e-006 1.03351367e-005 1.36589215e-005 1.57144368e-005
      2.52554146e-005 2.79863452e-005 2.48195938e-005 2.00993800e-005
      1.45919248e-005 3.53567430e-006 5.14778867e-006 -4.35480570e-006
      -1.14443083e-005 -1.58180064e-005 -1.97512454e-005
      -6.10292955e-006 5.34907258e-006 1.07475089e-005 1.42971221e-005
      1.11958871e-005 1.14030081e-005 1.00884799e-005 1.85487770e-005
      3.12155353e-005 2.45006377e-005 2.59719327e-005 2.34561139e-005
      2.45343508e-005 2.29279849e-005 2.03707532e-005 2.39269139e-005
      2.41051293e-005 1.92509924e-005 1.45615677e-005 8.13036786e-006
      1.20638206e-005 1.65413949e-005 1.45414842e-005 7.48673983e-006
      -1.07435626e-005 -7.56081135e-006 6.62500270e-006 7.20812841e-006
      2.72123043e-006 -8.75374371e-006 -1.50430860e-005 -1.20449267e-005
      -6.48414652e-006 -6.59288526e-006 -8.03399325e-006
      -8.56396923e-007 2.50102789e-006 -3.23504150e-006 -1.19219467e-005
      -1.17103709e-005 -1.03232460e-005 -7.71787472e-006
      -4.64380355e-006 1.10302574e-006 6.78061724e-006 -9.87219437e-007
      -7.70858060e-006 -8.64412777e-006 -1.34122263e-006 6.87116835e-006
      3.77304264e-006 -6.09867584e-007 3.48334606e-006 8.62284833e-006
      3.34967217e-006 -4.99522866e-006 -1.00416730e-006 2.21339883e-006
      8.38301821e-006 1.63321183e-005 1.87354417e-005 1.50903934e-005
      1.22806869e-005 2.32107923e-005 3.09267416e-005 3.45698900e-005
      2.45606479e-005 1.90636129e-005 1.73830686e-005 1.42799508e-005
      1.16366391e-005 1.12252719e-005 1.10858109e-005 1.44200758e-005
      1.66730115e-005 2.20489856e-005 2.68848835e-005 2.37963523e-005
      3.04034111e-005 2.62375524e-005 1.84692781e-005 1.47723922e-005
      1.13495262e-005 1.53073142e-005 2.54014922e-005 2.06681652e-005
      1.64134326e-005 1.24747594e-005 1.43954476e-005 1.48634335e-005
      1.52828288e-005 7.92591618e-006 9.61602109e-006 1.23518548e-005
      1.61233202e-005 1.28352413e-005 1.19821743e-005 1.30914341e-005
      1.85120298e-005 2.14012889e-005 2.64233386e-005 1.70856747e-005
      -2.50332732e-006 -1.70969197e-005 -1.92522493e-005
      -2.15714263e-005 -2.21298706e-005 -1.85934277e-005
      -2.10578855e-005 -2.33632309e-005 -2.51289002e-005
      -1.81691139e-005 -9.18658043e-006 -9.52745268e-006 1.68635452e-007
      1.73504304e-005 1.17037434e-005 -7.11993107e-006 -8.69884116e-006
      -1.12529160e-005 -1.60831096e-005 -2.11945699e-005
      -2.41629059e-005 -2.12429622e-005 -2.52002992e-005
      -2.42858932e-005 -2.22230046e-005 -1.48448025e-005
      -1.12482633e-006 1.22100091e-005 1.71103839e-005 1.95227130e-005
      2.67222476e-005 3.35315090e-005 3.38751051e-005 2.89304189e-005
      2.28887766e-005 1.80195038e-005 6.37937910e-006 8.74006048e-007
      -4.88960814e-006 -8.54712744e-006 -8.44385340e-006
      -1.04664477e-005 -3.54365829e-006 8.83219218e-006 1.23656064e-005
      1.77557667e-005 1.87627702e-005 1.34807060e-005 1.17467380e-005
      2.20630536e-005 2.64018890e-005 2.48392553e-005 2.23521747e-005
      2.83253721e-005 3.24989378e-005 2.85192255e-005 3.35775512e-005
      3.05000776e-005 2.74108588e-005 1.95828052e-005 1.17400259e-005
      1.03555694e-005 2.12745381e-005 2.62564554e-005 2.94843794e-005
      2.12803825e-005 2.06734376e-006 2.81880489e-006 1.38487676e-005
      1.61504740e-005 9.07929916e-006 -2.86268937e-006 -1.33007097e-005
      -5.18978686e-006 1.44461069e-006 2.02332990e-006 -6.82667405e-007
      -2.49152185e-006 1.73070930e-006 -3.07716437e-006 -1.26979467e-005
      -1.38383266e-005 -4.97099154e-006 4.34834050e-007 3.88571789e-006
      7.45711077e-006 7.94730295e-006 4.32479646e-006 -2.45129741e-006
      -1.44614683e-006 5.37301776e-006 1.33885997e-005 1.34211923e-005
      6.26524752e-006 4.47852199e-006 1.30780500e-005 1.32708665e-005
      1.66238460e-005 1.21109197e-005 1.48747504e-005 1.85479712e-005
      1.73456192e-005 1.67223880e-005 1.18329644e-005 1.60841846e-005
      2.66832758e-005 3.23004533e-005 2.91350752e-005 2.42547558e-005
      2.03241689e-005 1.75747336e-005 1.24236431e-005 1.22064330e-005
      1.36686667e-005 1.45388976e-005 1.87930054e-005 1.88862014e-005
      2.14049705e-005 3.14164245e-005 2.96853796e-005 2.64275950e-005
      3.03514771e-005 2.57157535e-005 2.04463704e-005 1.17867812e-005
      7.52036885e-006 1.41950140e-005 1.48067429e-005 1.54829104e-005
      1.50782898e-005 1.69361410e-005 1.39822196e-005 1.59498704e-005
      1.28424144e-005 1.59419687e-005 2.16061708e-005 2.35824937e-005
      1.75137338e-005 1.68519546e-005 2.11085535e-005 2.27109358e-005
      2.65688304e-005 2.20676920e-005 1.18710313e-005 -9.20612183e-006
      -2.80683635e-005 -2.44590556e-005 -2.76377050e-005
      -2.53981871e-005 -2.11840797e-005 -2.50719440e-005
      -2.52454156e-005 -2.06805507e-005 -1.73627050e-005
      -1.18214730e-005 -1.06227171e-005 6.71531097e-006 1.78683749e-005
      1.15631728e-005 -9.64665378e-006 -1.45168033e-005 -1.70504100e-005
      -2.24691757e-005 -2.40977770e-005 -2.27789023e-005
      -2.50466910e-005 -2.14204756e-005 -1.63010700e-005
      -1.46910234e-005 -7.57599901e-006 5.69834810e-006 9.24450796e-006
      1.05964182e-005 1.65356323e-005 2.46504424e-005 3.63395375e-005
      3.61656930e-005 3.13580604e-005 2.82473247e-005 1.81415999e-005
      3.93771734e-006 -3.06454240e-006 -3.59600631e-006 -8.39473523e-006
      -6.99053089e-006 -3.59287355e-006 2.89742593e-006 1.04295805e-005
      1.63379718e-005 2.24501491e-005 1.86829493e-005 6.68853727e-006
      1.53441670e-006 1.26920186e-005 1.99633287e-005 2.05853885e-005
      1.30780300e-005 1.71877764e-005 1.76621033e-005 1.49045800e-005
      1.71156480e-005 1.39565182e-005 1.33945032e-005 1.55861180e-005
      1.44644264e-005 1.75984187e-005 2.56104959e-005 3.02668141e-005
      3.36895755e-005 2.64402115e-005 1.58275961e-005 1.86764864e-005
      2.29966317e-005 2.15710079e-005 1.24940325e-005 -3.11938493e-006
      -1.32157329e-005 -6.33561694e-006 3.32374498e-007 4.60295890e-009
      -3.92173251e-006 -6.69125484e-006 -8.62542765e-006
      -1.74583893e-005 -2.33854862e-005 -2.09758473e-005
      -9.28931331e-006 -3.23823474e-006 -1.03432274e-006 3.28825172e-006
      5.06059314e-006 -6.74417677e-008 -6.30908835e-006 -3.35375466e-006
      -9.82266442e-007 3.54617259e-006 7.44162799e-006 2.96857843e-006
      -9.02118472e-007 5.45990679e-006 6.00845078e-006 1.01668820e-005
      -8.26241433e-007 -7.29402075e-007 -1.37176460e-006 9.34817876e-007
      1.78707012e-007 3.31251567e-006 8.80135212e-006 2.68161184e-005
      3.21893676e-005 3.27380767e-005 2.22413782e-005 1.31792049e-005
      4.90602861e-006 1.37608401e-006 -3.35720483e-006 8.05487787e-007
      4.56533508e-006 1.55455764e-005 1.32263967e-005 7.76679371e-006
      1.79954186e-005 1.86942289e-005 1.51671211e-005 1.81269716e-005
      1.42322288e-005 5.09167148e-006 2.06318146e-006 9.96628160e-007
      3.70266298e-006 5.79920970e-006 3.00598163e-006 3.71512374e-006
      -2.23500501e-006 -6.12637848e-007 -1.29329169e-006
      -1.95284770e-006 -1.13158217e-006 4.42775854e-006 9.77200307e-006
      1.43447469e-005 1.46783268e-005 1.58040184e-005 2.19183730e-005
      2.66294119e-005 2.06463556e-005 8.03090734e-006 -1.14675158e-005
      -2.19337635e-005 -2.12269460e-005 -1.84907876e-005
      -2.12512186e-005 -2.04361804e-005 -2.04473090e-005
      -2.69310494e-005 -3.00977390e-005 -2.55217219e-005
      -1.62375582e-005 -1.47917908e-005 6.67415270e-006 2.30306650e-005
      5.66991548e-006 -1.46603634e-005 -1.98193229e-005 -1.96489291e-005
      -2.37674631e-005 -2.48392062e-005 -2.22636118e-005
      -2.05608667e-005 -1.60297786e-005 -1.39395052e-005
      -1.46998755e-005 -9.18801197e-006 -4.05034461e-006
      -4.07118250e-006 7.34355524e-007 2.54118208e-006 1.30983972e-005
      2.88984829e-005 3.36859848e-005 2.47920671e-005 2.09256505e-005
      9.94491256e-006 -5.03756291e-006 -1.49522630e-005 -9.01860494e-006
      -6.30653130e-006 -5.54970165e-006 -1.09786197e-005
      -6.99678412e-006 1.98180246e-007 6.99394923e-006 1.30490898e-005
      1.13965225e-005 -1.27411465e-006 -6.98732265e-006 -4.47842012e-007
      5.46375395e-006 1.75235255e-006 -6.72558735e-006 -1.08502445e-005
      -8.72078635e-006 -5.85121279e-006 -8.10169058e-006
      -1.17705476e-005 -5.12863244e-006 1.08767717e-005 1.16642350e-005
      1.36226417e-005 2.36259202e-005 2.82379078e-005 2.67602973e-005
      2.57560441e-005 2.04663665e-005 2.22025665e-005 2.29773923e-005
      2.28046338e-005 1.17096170e-005 -4.08267442e-006 -1.72304553e-005
      -1.20642062e-005 -5.24213601e-006 -3.24177927e-006
      -1.20623672e-005 -1.81117284e-005 -1.63773566e-005
      -2.46090767e-005 -3.27306225e-005 -3.36885350e-005
      -2.04324824e-005 -1.18433618e-005 -4.54691644e-006 6.01466411e-007
      3.04937225e-006 -5.09826293e-007 -2.20152219e-006 -4.37019298e-006
      -4.55005011e-006 4.80185236e-007 -1.04352250e-006 -6.93140873e-006
      -1.00998959e-005 -1.54594291e-005 -8.28643897e-006 1.88442482e-006
      -7.28692112e-006 -7.42172369e-006 -1.17235777e-005
      -1.30332410e-005 -8.21939830e-006 2.38629877e-006 8.01994065e-006
      1.72977670e-005 2.44143885e-005 2.45279807e-005 7.23692483e-006
      -5.19365585e-006 -1.39235881e-005 -1.80881543e-005
      -1.61103326e-005 -4.50484919e-007 3.18578259e-006 6.18597687e-006
      2.96466510e-006 -5.27986822e-006 1.99859733e-006 6.01289003e-006
      1.51723214e-006 2.32167326e-006 -2.45130786e-006 -1.09592538e-005
      -4.81515917e-006 -3.89476281e-006 -6.88336468e-006
      -1.37595669e-006 -3.92450329e-006 -1.13035571e-006
      -2.01646321e-006 -3.06207380e-006 -3.95104144e-006
      -1.45958882e-006 -7.13026157e-006 -5.93503773e-006
      -4.28534850e-006 -1.70586372e-006 4.43616136e-006 7.88789293e-006
      2.27416913e-005 3.05775320e-005 1.84690543e-005 4.13892707e-007
      -2.79458127e-005 -2.66299739e-005 -3.41480518e-005
      -2.93422781e-005 -2.83346781e-005 -2.86849263e-005
      -2.87086405e-005 -3.30969669e-005 -3.32861600e-005
      -3.07361115e-005 -2.51315796e-005 -1.48058652e-005 8.51538425e-006
      2.62912745e-005 5.27100474e-006 -2.29733432e-005 -2.37368695e-005
      -2.76840274e-005 -3.56054261e-005 -3.69320842e-005
      -3.45360713e-005 -2.82096116e-005 -1.86021352e-005
      -1.51447866e-005 -1.74840479e-005 -1.83024367e-005
      -1.62526685e-005 -1.35054306e-005 -1.75581113e-006 4.47882621e-006
      9.17105717e-006 2.31981394e-005 2.28218905e-005 1.93587257e-005
      2.28849203e-005 6.56236762e-006 -3.27925204e-006 -2.13104504e-005
      -2.06277909e-005 -2.23425104e-005 -2.28831977e-005
      -2.51852234e-005 -1.66597874e-005 -9.13502117e-006 4.14096166e-006
      8.56015777e-006 8.67220479e-006 -1.15647413e-006 -2.80182439e-006
      6.09494327e-006 2.43277805e-006 -6.12820668e-006 -7.33141087e-006
      -1.77051770e-005 -1.52769080e-005 -1.37265897e-005
      -1.09739194e-005 -4.53941539e-006 1.12007847e-005 1.42205490e-005
      1.13193346e-005 1.11041436e-005 2.04906628e-005 1.91932741e-005
      1.24083399e-005 1.73983371e-005 1.47496230e-005 1.72667696e-005
      1.80797142e-005 2.37519234e-005 1.30334256e-005 -5.79670632e-006
      -1.81604537e-005 -1.37770030e-005 -6.15193039e-006
      -8.37302468e-006 -1.77711918e-005 -2.14441734e-005
      -1.80169791e-005 -2.65621838e-005 -3.40829138e-005
      -3.79093690e-005 -2.93000503e-005 -2.25284894e-005
      -1.37826073e-005 -8.42336885e-006 -1.40260518e-005
      -9.65830895e-006 -9.20134426e-006 -8.43293310e-006
      -9.04688477e-006 -6.04645436e-007 -5.02295006e-006
      -6.73144132e-006 -1.10585706e-005 -6.87202464e-006
      -1.83811471e-006 9.59715862e-007 -1.38340911e-005 -1.42393083e-005
      -1.76483500e-005 -1.96481578e-005 -1.34151933e-005 1.52723590e-006
      8.18511580e-006 1.35362970e-005 8.62355773e-006 3.96736641e-006
      -5.92957849e-006 -1.39746326e-005 -1.70352687e-005
      -1.77541351e-005 -1.52328221e-005 -2.61742753e-006 3.85768180e-006
      3.52302141e-006 1.35011805e-006 -1.05339614e-005 1.44724495e-007
      3.60296917e-006 3.30231478e-006 5.44566910e-006 7.06952233e-006
      6.13876000e-006 1.53342116e-005 1.93351480e-005 1.14276054e-005
      2.85173883e-006 -1.02054901e-005 -1.02264858e-005 -6.94078926e-006
      -8.21221238e-006 -5.82373923e-006 -2.19040976e-006
      -7.15955412e-006 -8.17523687e-006 -6.47043589e-006
      -9.45854117e-006 5.98511542e-006 1.20937857e-005 2.31930499e-005
      2.92262212e-005 1.91304443e-005 -3.34384799e-006 -2.18708210e-005
      -2.70046603e-005 -3.44392975e-005 -3.18551138e-005
      -3.14815043e-005 -3.07789960e-005 -2.83136014e-005
      -2.82740093e-005 -2.76877945e-005 -2.81009343e-005
      -1.95703105e-005 -9.83119298e-006 1.06376301e-005 2.97097558e-005
      6.43863086e-006 -1.99047226e-005 -2.58717009e-005 -2.93919747e-005
      -3.35011646e-005 -3.25881738e-005 -3.40582010e-005
      -3.41246705e-005 -2.96652634e-005 -1.71684442e-005
      -1.70586518e-005 -1.97081154e-005 -2.16421977e-005
      -1.83333668e-005 -6.59495981e-006 -1.58520595e-006 1.24433436e-005
      2.80310505e-005 2.97698061e-005 2.88840019e-005 3.04134755e-005
      2.66241859e-005 1.41371102e-005 -2.75719708e-006 -1.96710844e-005
      -2.41054749e-005 -3.02052213e-005 -4.11778565e-005
      -2.30477781e-005 -9.88237389e-006 2.19881554e-006 7.55153224e-006
      1.04595010e-005 -6.36685513e-008 5.25168798e-006 1.25259121e-005
      1.86383786e-005 1.28218107e-005 1.11250947e-005 1.42255465e-006
      -1.63343066e-006 -5.43180754e-008 9.59880708e-006 2.12714658e-005
      2.33682531e-005 2.42565238e-005 1.76558860e-005 1.73802418e-005
      1.95777775e-005 1.58346629e-005 1.75378518e-005 1.44792148e-005
      1.35664050e-005 1.29807431e-005 8.36591335e-006 1.01386795e-005
      1.03711491e-005 -4.44618172e-006 -1.39819094e-005 -7.11191115e-006
      -4.19133858e-006 -8.63158857e-006 -2.16101544e-005
      -2.16376302e-005 -1.95577904e-005 -2.35455263e-005
      -3.21578918e-005 -4.08896922e-005 -3.61868188e-005
      -2.74508457e-005 -2.03792388e-005 -2.02273150e-005
      -1.79078925e-005 -8.41148358e-006 -6.30284330e-006
      -6.63188166e-006 -4.27258965e-006 -3.61684397e-006
      -7.81003928e-006 -4.92157915e-006 2.90491556e-007 7.09164533e-006
      1.23454856e-005 7.54477696e-006 -1.33676122e-005 -1.51299564e-005
      -1.88930189e-005 -1.20014265e-005 -1.44546020e-005
      -2.95084374e-006 4.93354855e-006 8.14438681e-006 5.35322442e-006
      3.83919269e-006 3.46984643e-006 -1.15903331e-005 -1.21191824e-005
      -1.19567439e-005 -2.47527328e-006 2.95647760e-006 5.35384970e-006
      4.50012431e-006 -2.44433039e-007 -4.96201210e-006 4.52775203e-006
      2.02111551e-006 6.88100317e-006 7.40950145e-006 1.18966345e-005
      2.36227570e-005 3.31033989e-005 3.50524206e-005 2.51693491e-005
      9.27316160e-006 -6.74147395e-006 -1.27097128e-005 -1.13524820e-005
      -1.36124245e-005 -5.59293039e-006 -4.88279454e-007
      -3.75128161e-006 -3.02716057e-006 -1.98536577e-006
      -1.49735774e-006 4.69084989e-006 1.64541470e-005 2.81544726e-005
      2.96733269e-005 1.83391276e-005 -1.22656820e-006 -2.10840644e-005
      -2.79866526e-005 -3.43556385e-005 -3.05900030e-005
      -2.81921039e-005 -2.63004331e-005 -1.56093374e-005
      -1.93127162e-005 -1.36380213e-005 -1.47043102e-005
      -9.56004169e-006 -1.77863649e-006 1.20987888e-005 2.94282381e-005
      4.28829253e-006 -2.54871939e-005 -2.96906801e-005 -2.87142611e-005
      -2.59148237e-005 -1.77252841e-005 -2.51810452e-005
      -3.05698813e-005 -2.63091952e-005 -1.79733615e-005
      -1.39400963e-005 -2.31124141e-005 -2.41049675e-005
      -1.97795107e-005 -6.69977044e-006 2.70389796e-006 1.49607758e-005
      1.61916360e-005 2.24690812e-005 2.58385990e-005 3.00353440e-005
      3.17478771e-005 1.72113469e-005 9.45333613e-006 -4.66446772e-006
      -2.14442207e-005 -2.88642968e-005 -3.19786632e-005
      -2.55284231e-005 -1.16100973e-005 8.42982536e-006 1.60417458e-005
      1.41926002e-005 5.51253015e-006 5.86294664e-006 1.13005844e-005
      1.60053169e-005 2.56299791e-005 2.58977161e-005 1.05395675e-005
      2.20966399e-006 4.83898702e-007 2.08152160e-005 3.38924619e-005
      3.85264357e-005 2.95286191e-005 1.74546294e-005 2.00832183e-005
      1.73346070e-005 2.05299384e-005 2.48688739e-005 2.16322660e-005
      1.70026105e-005 9.89972523e-006 5.09238021e-007 5.42834550e-006
      5.26172971e-006 -9.27922611e-006 -1.21154890e-005 -7.60423154e-006
      -1.17149057e-005 -2.02324281e-005 -2.76398241e-005
      -2.46637755e-005 -1.95106113e-005 -2.32276507e-005
      -2.79804244e-005 -3.36795274e-005 -3.06270158e-005
      -2.83044483e-005 -2.73316309e-005 -2.68309523e-005
      -1.91844993e-005 -6.24417589e-006 -3.07302389e-006
      -3.28423221e-006 -7.29538669e-006 -9.04193439e-006
      -6.92659387e-006 1.21367702e-006 7.79632137e-006 1.60602995e-005
      1.76903213e-005 9.42658426e-006 -6.12976828e-006 -8.54800692e-006
      -3.40752808e-006 -4.27496161e-007 1.11377062e-006 5.75023819e-007
      1.37757124e-005 1.93865471e-005 1.58688672e-005 1.47992050e-005
      1.02478343e-005 -3.83167753e-006 -1.11265608e-005 -8.22874154e-006
      -5.00432225e-006 -7.31563932e-006 -6.06254298e-006
      -5.47308719e-006 -1.19319029e-005 -1.30059734e-005
      -3.10644850e-006 -1.18873040e-005 -3.04417017e-006 9.50318793e-007
      9.21301125e-006 2.84112830e-005 3.40501501e-005 3.16373626e-005
      2.44703351e-005 9.53923336e-006 9.49581391e-008 -5.30399257e-006
      -1.84189339e-005 -2.12500745e-005 -1.17450941e-006 5.94594030e-006
      2.73575711e-006 4.16479270e-006 -1.43492480e-006 2.38557413e-006
      5.52408892e-006 2.35698753e-005 3.29132090e-005 3.02133467e-005
      1.08282602e-005 -1.29416167e-005 -3.34755641e-005 -4.20409451e-005
      -4.69898041e-005 -4.24290010e-005 -3.16878104e-005
      -1.85303070e-005 -1.72193286e-005 -2.57907286e-005
      -2.45177907e-005 -2.10186172e-005 -1.18014896e-005
      -3.32491345e-006 1.15466028e-005 2.92759742e-005 2.64887512e-006
      -2.69752891e-005 -2.82477304e-005 -3.59355981e-005
      -1.88409649e-005 -1.05905156e-005 -1.08133181e-005
      -1.46130787e-005 -2.14191823e-005 -1.71680058e-005
      -1.29261043e-005 -1.77208058e-005 -1.89762541e-005
      -8.32643218e-006 4.06210665e-006 1.44097185e-005 1.65640577e-005
      1.46595321e-005 1.49213620e-005 1.87584556e-005 2.71102344e-005
      2.72516427e-005 1.45750282e-005 5.08858557e-006 -2.35823586e-006
      -1.83146076e-005 -3.07498158e-005 -2.97580737e-005
      -2.14269458e-005 -8.66775099e-006 1.47609708e-005 2.53840390e-005
      2.07316880e-005 9.09498067e-006 6.82752898e-006 8.02209433e-006
      6.47345314e-006 9.54375628e-006 1.57298728e-005 4.39802443e-006
      9.29446628e-007 1.15915157e-006 2.31377253e-005 3.83884726e-005
      4.05337923e-005 3.22663363e-005 1.55518210e-005 1.89108305e-005
      1.97441241e-005 2.51181627e-005 3.07720511e-005 3.20688669e-005
      2.97328897e-005 2.86693394e-005 2.65044309e-005 2.70353139e-005
      2.34740473e-005 5.82938583e-006 -5.91095386e-006 -2.25768076e-006
      -7.86726196e-006 -9.84381950e-006 -1.59286064e-005
      -1.44523283e-005 -1.72644213e-005 -1.77122874e-005
      -1.87590867e-005 -2.34236559e-005 -2.32696475e-005
      -2.06317745e-005 -2.64567298e-005 -2.25703880e-005
      -2.47392040e-006 1.20165259e-005 1.77123129e-005 1.92114512e-005
      1.36804229e-005 5.20514186e-006 -3.46399065e-006 4.67456584e-006
      1.08592403e-005 1.93062424e-005 1.91874879e-005 6.07766196e-006
      -1.23645050e-005 -1.26772966e-005 -5.04445006e-006 1.87268790e-006
      2.79139226e-006 -1.35925566e-005 3.87278760e-006 1.14981904e-005
      1.46722614e-005 1.68807219e-005 1.35667742e-005 7.56288500e-006
      1.52674966e-006 -9.53329345e-006 -1.19750030e-005 -5.40667452e-006
      -1.47568808e-005 -1.84733053e-005 -2.72118214e-005
      -2.70873606e-005 -1.63533005e-005 -1.17420086e-005
      -1.30315548e-005 -6.16080843e-006 1.00504531e-005 2.14198426e-005
      2.21203973e-005 2.03287509e-005 1.10276669e-005 7.62780974e-006
      -2.15769956e-006 -7.55377914e-006 -1.48758172e-005
      -9.15011242e-006 -6.34567505e-006 1.86652096e-006 -5.08029098e-006
      -6.43486919e-006 -5.25860241e-006 -1.42819072e-005
      -6.74753664e-006 2.07810499e-005 3.54771801e-005 3.39720864e-005
      8.51664390e-006 -1.82104159e-005 -3.48069880e-005 -4.04112034e-005
      -4.76616260e-005 -4.05249484e-005 -3.14680256e-005
      -2.26769098e-005 -2.26143038e-005 -2.79708165e-005
      -3.22673041e-005 -2.55366831e-005 -1.27127341e-005
      -4.87485522e-006 1.53128494e-005 3.14259378e-005 9.39120400e-006
      -1.94192307e-005 -2.58673044e-005 -3.04365658e-005
      -3.04221121e-005 -4.78535276e-006 -4.06231629e-006
      -1.30530734e-005 -1.46046814e-005 -1.94005879e-005
      -1.76051344e-005 -1.97213303e-005 -1.74461547e-005
      -7.02552188e-006 3.60495847e-006 1.48835070e-005 1.61668213e-005
      1.36950239e-005 1.51845752e-005 1.34743659e-005 1.71697247e-005
      1.04662759e-005 3.08476274e-006 2.70345572e-006 -3.44716182e-006
      -1.39560361e-005 -2.81808352e-005 -2.38691464e-005
      -1.89926905e-005 6.00434873e-007 1.35230175e-005 2.46515265e-005
      1.44709038e-005 6.09478957e-006 7.09961205e-006 6.38905522e-006
      7.03030673e-006 9.64195715e-006 4.22323865e-006 -2.59728131e-006
      -8.12073097e-007 -4.18319843e-007 2.21517930e-005 3.76053504e-005
      3.70432244e-005 2.63320326e-005 1.38090718e-005 1.11063382e-005
      2.14244501e-005 2.92490568e-005 3.13105011e-005 3.07671944e-005
      3.00192351e-005 3.62612227e-005 3.78613149e-005 3.35848235e-005
      2.36913238e-005 7.36309130e-006 -2.66222258e-007 4.97091514e-006
      3.98253405e-006 -1.80344023e-006 -9.40886093e-006 -1.05534382e-005
      -1.62708875e-005 -1.36300623e-005 -1.74080069e-005
      -1.99382594e-005 -1.82377025e-005 -1.47903311e-005
      -1.55375983e-005 -1.66189984e-005 8.58838405e-007 1.68296356e-005
      2.49550594e-005 2.51646379e-005 1.49316902e-005 9.22054369e-006
      1.16466326e-005 1.41772489e-005 1.53822639e-005 2.11584957e-005
      1.78948922e-005 4.55301188e-006 -9.27718611e-006 -7.56319696e-006
      -3.83742235e-006 -1.72663150e-007 -2.42125338e-006
      -1.27652011e-005 -7.01267436e-006 1.09218508e-005 2.25948515e-005
      3.30169714e-005 3.29700924e-005 1.64762587e-005 3.89580549e-007
      -1.17288391e-005 -5.02186458e-006 -4.28494786e-006
      -1.48088793e-005 -2.49065833e-005 -2.56351523e-005
      -2.14090032e-005 -1.17993732e-005 -2.44220291e-006 2.59317801e-007
      3.07193204e-006 1.72796790e-005 1.79559192e-005 1.61353291e-005
      1.51476406e-005 9.90189255e-006 4.54510200e-006 -6.55990016e-006
      -8.45925479e-006 -6.16467969e-006 7.00835017e-006 1.16123019e-005
      9.59926729e-006 1.76341518e-006 -8.29082467e-007 1.74651780e-006
      -1.32753621e-006 -3.57688492e-007 2.29412290e-005 4.50687185e-005
      4.79678311e-005 2.56167968e-005 -6.95251538e-006 -3.24918219e-005
      -3.34094439e-005 -3.56862874e-005 -3.07638475e-005
      -2.24318537e-005 -1.68749593e-005 -1.78906794e-005
      -2.59409662e-005 -2.53157850e-005 -1.91870895e-005
      -6.61965350e-006 1.12990347e-006 2.06665500e-005 3.46440684e-005
      8.11540485e-006 -4.45651767e-006 -2.64534938e-005 -2.58698965e-005
      -2.44113944e-005 3.04640253e-007 -1.96786587e-008 -9.23052085e-006
      5.18062564e-007 -2.05089941e-006 -1.61731714e-005 -2.87635958e-005
      -2.45542069e-005 -1.18193620e-005 -7.82699044e-006 3.80743631e-006
      1.33049452e-005 2.20299171e-005 2.31702979e-005 1.85721892e-005
      6.19171260e-006 1.60814739e-006 -4.28952080e-006 -1.12105329e-006
      -3.91148342e-006 -2.03231775e-005 -2.71667268e-005
      -2.56559197e-005 -1.56133210e-005 -3.14393532e-007 1.00354346e-005
      1.42264726e-005 3.13804776e-006 2.59748663e-006 3.96483847e-006
      8.03358580e-006 4.78618267e-006 7.22014136e-007 -7.09763390e-006
      -1.00492025e-005 -9.40191057e-006 -5.40936253e-006 8.38271808e-006
      3.12343946e-005 3.68624060e-005 2.43958257e-005 1.22552592e-005
      7.30374177e-006 2.34083891e-005 2.73221267e-005 2.15294840e-005
      2.25568001e-005 2.30893202e-005 3.22080305e-005 3.90665737e-005
      2.85032638e-005 1.47943601e-005 1.21435767e-006 -9.83168866e-006
      4.13956195e-006 3.08074027e-006 -4.53452503e-006 -8.32480328e-006
      -1.23066447e-005 -1.70901221e-005 -1.10503124e-005
      -1.57748236e-005 -2.24552059e-005 -2.39511974e-005
      -2.16362769e-005 -2.07912508e-005 -2.07322701e-005
      -9.02097872e-006 2.24503151e-006 1.40261673e-005 1.50418064e-005
      1.62832457e-005 1.54866666e-005 2.17116340e-005 2.05160541e-005
      1.96147121e-005 1.68318875e-005 1.16814845e-005 -4.29391548e-006
      -9.42226052e-006 -7.83780888e-006 -3.52209213e-006
      -6.05629884e-006 -1.28941592e-005 -2.38745433e-005
      -1.22735401e-005 8.63131663e-006 3.28361821e-005 4.36688388e-005
      4.20610595e-005 1.57767863e-005 5.10504705e-009 -6.73612203e-006
      -6.05606238e-006 -7.70049337e-006 -1.45787790e-005
      -2.18371533e-005 -2.02915853e-005 -1.68732349e-005
      -6.64828440e-006 -1.56276485e-006 -4.45134401e-006 7.24971187e-006
      9.78631761e-006 1.31198431e-005 1.15126368e-005 8.80303742e-006
      2.02766728e-006 5.51780701e-008 -7.95427422e-006 -9.63208277e-006
      -5.97435064e-006 1.15065277e-005 1.97055106e-005 1.35937889e-005
      1.79009680e-006 3.50940832e-006 -1.37224461e-007 1.48317724e-006
      8.59465217e-006 3.48783942e-005 6.21780855e-005 6.59750440e-005
      4.37825693e-005 3.83255838e-006 -1.62614051e-005 -1.49512844e-005
      -1.38431706e-005 -9.51847778e-006 -1.92276934e-006
      -6.05694504e-006 -6.08031723e-006 -1.26391578e-005
      -1.51677004e-005 -6.45678620e-006 3.64493394e-006 1.62080250e-005
      2.82019064e-005 3.98200755e-005 6.84779616e-006 -1.59960200e-006
      -1.17253785e-005 -2.86346585e-005 -2.44525436e-005
      -3.69497161e-006 -5.13419764e-006 -3.69723807e-006 6.72076703e-006
      7.85238899e-006 -7.21647257e-006 -9.92524474e-006 -2.08015099e-005
      -1.69974755e-005 -1.61493335e-005 -9.62951526e-006 7.34499008e-006
      2.18825044e-005 3.29791546e-005 2.75508119e-005 1.29627160e-005
      5.68895075e-006 1.00586467e-005 7.74219370e-006 2.76499668e-006
      -1.72204673e-005 -2.33795854e-005 -2.21137016e-005
      -1.06040288e-005 2.47982234e-006 7.41353097e-006 1.11810050e-005
      -2.94074107e-006 -6.62310549e-006 -3.24205257e-006
      -1.62265891e-007 5.18760817e-006 5.95074653e-007 -6.36271352e-006
      -1.00925699e-005 -1.22266847e-005 -1.81374726e-005
      -2.70226246e-006 1.45675103e-005 1.72243981e-005 1.43680591e-005
      1.14546219e-005 1.41185046e-005 2.32525854e-005 1.98621474e-005
      1.73320532e-005 1.60956861e-005 6.08687787e-006 2.17050620e-005
      3.88260378e-005 3.80692145e-005 1.81440973e-005 7.21290235e-006
      -7.12270730e-006 6.72499311e-007 4.47159074e-008 -1.08084687e-005
      -1.60930249e-005 -1.89612347e-005 -1.58929124e-005
      -1.84206710e-005 -2.27557593e-005 -3.38908721e-005
      -3.24798093e-005 -3.02432400e-005 -2.54766273e-005
      -2.57754273e-005 -1.83659249e-005 -3.28219676e-006
      -2.41973612e-006 4.20476772e-006 1.25452052e-005 1.93433279e-005
      2.52963382e-005 2.17527595e-005 1.83964657e-005 1.26442310e-005
      7.70400490e-008 -6.02660293e-006 -9.64149694e-006 -7.22257073e-006
      -6.45318642e-006 -1.18491880e-005 -2.12503819e-005
      -3.59870428e-005 -1.97381942e-005 2.30518253e-006 2.84757207e-005
      3.55965058e-005 3.29298455e-005 7.09330880e-006 -1.11685285e-005
      -1.02816903e-005 -2.51311099e-006 -1.78916912e-006
      -9.53473227e-006 -1.76609592e-005 -1.91430390e-005
      -2.00043105e-005 -1.13309070e-005 -1.03070570e-005 2.05984452e-006
      1.42253402e-005 1.13560827e-005 1.23155296e-005 7.96998393e-006
      -3.59762385e-006 -1.19640754e-005 -1.67331582e-005
      -1.35397777e-005 -1.18786293e-005 -8.50735341e-006 1.21149278e-005
      2.71977660e-005 1.66882310e-005 -8.09569940e-007 -9.80734512e-006
      -1.10334777e-005 -2.13263093e-006 5.22098071e-006 3.53206269e-005
      5.81088934e-005 5.81801942e-005 3.38222453e-005 -6.50842048e-006
      -1.64798330e-005 -1.57296690e-005 -1.23492700e-005
      -6.89364470e-006 3.43095940e-006 2.64956520e-006 4.51719052e-006
      3.54085705e-006 2.49074810e-006 7.95493634e-006 1.75758341e-005
      1.82402673e-005 2.68377171e-005 3.81967839e-005 7.54677376e-006
      -1.72660675e-005 -1.38872701e-005 -1.77787133e-005
      -1.56420610e-005 -1.31465467e-005 -2.42271562e-005
      -8.13002225e-006 3.08334370e-006 4.49889831e-006 -3.91565527e-006
      -9.26574648e-006 -2.11198294e-005 -2.15275704e-005
      -1.75773439e-005 -1.51468157e-005 -3.23713834e-006 1.68945758e-006
      1.42229883e-005 1.27446974e-005 1.50786545e-005 1.58416406e-005
      1.32976502e-005 5.14075600e-006 -2.58002660e-006 -1.75361711e-005
      -1.95155553e-005 -2.24760843e-005 -1.06177722e-005
      -2.45362276e-006 5.27477368e-006 8.36899289e-006 -5.54509006e-006
      -1.43092375e-005 -1.76005633e-005 -1.51014237e-005
      -1.11466852e-005 -1.92085267e-007 1.03854347e-006 -4.77566982e-006
      -1.57939630e-005 -1.89679977e-005 -6.44981765e-006 1.06732041e-005
      1.02990352e-005 1.54131376e-005 1.76520680e-005 1.64035409e-005
      2.39795863e-005 2.24365849e-005 2.00222548e-005 1.65831316e-005
      2.98400892e-006 1.41650016e-005 3.01128875e-005 4.07219777e-005
      3.33205935e-005 1.52901048e-005 -3.36502762e-006 -1.41578244e-006
      -7.68934058e-007 -1.88014219e-005 -2.21407572e-005
      -1.66141344e-005 -1.26714731e-005 -1.36213976e-005
      -2.30999613e-005 -3.52530733e-005 -3.59452861e-005
      -3.70414091e-005 -2.85727128e-005 -2.39134697e-005
      -1.41614528e-005 -6.38956317e-006 -5.28733744e-006
      -5.74838896e-006 1.44841470e-005 1.94856093e-005 1.92071002e-005
      2.13464737e-005 2.40238496e-005 5.64711127e-006 -1.05971803e-005
      -1.66852769e-005 -1.67629532e-005 -1.24083208e-005
      -1.31200250e-005 -2.12229388e-005 -2.99255280e-005
      -3.13341261e-005 -1.89851962e-005 2.76054880e-006 2.40124973e-005
      3.14073768e-005 2.55310733e-005 2.42260307e-006 -1.77777310e-005
      -1.29222144e-005 -1.20100203e-005 -1.03804769e-005
      -1.68594815e-005 -2.66437546e-005 -1.62525666e-005
      -1.35815408e-005 -7.97114717e-006 -1.36920298e-005 1.49249968e-006
      1.25132528e-005 1.69391005e-005 1.11797381e-005 8.05697709e-006
      -8.81303265e-007 -6.96280813e-006 -1.49057050e-005
      -1.93798824e-005 -2.74658087e-005 -1.70289604e-005 2.10809753e-006
      2.07550402e-005 9.95567734e-006 4.44207990e-006 -6.81706354e-007
      -1.33230412e-006 3.47115406e-006 1.18736134e-005 3.90084024e-005
      4.61652271e-005 4.66964884e-005 2.45055344e-005 -2.71517433e-006
      -1.40388138e-005 -1.15049306e-005 -8.80963671e-006
      -2.13467865e-006 5.12783345e-006 3.98661359e-006 1.16388874e-005
      8.30858971e-006 2.84687621e-006 5.32331478e-006 1.54087666e-005
      1.84364017e-005 2.42283731e-005 3.50387527e-005 1.86761008e-006
      -2.95120499e-005 -3.21826956e-005 -1.97609988e-005
      -1.83896918e-005 -2.73193164e-005 -2.74878166e-005
      -1.11039380e-005 -4.09024551e-007 6.39063558e-007 -4.13223052e-006
      -1.08722161e-005 -2.11692040e-005 -2.20847196e-005
      -1.57245177e-005 -1.63417644e-005 -1.01658234e-005
      -7.46072601e-006 1.87324417e-006 3.29055774e-006 1.06084308e-005
      1.45700069e-005 3.09716285e-007 -9.59139015e-006 -1.48995568e-005
      -1.91013696e-005 -1.74853030e-005 -2.08353358e-005
      -1.48550425e-005 -2.66385769e-006 3.26787426e-006 1.53068795e-005
      9.90126227e-006 -3.63266452e-007 -1.70251114e-005 -2.05903398e-005
      -1.14801205e-005 -3.80799889e-007 -5.00893111e-006
      -2.67738301e-006 -1.79716444e-005 -2.44963467e-005
      -1.16544179e-005 2.07261496e-006 2.87124772e-006 4.63019023e-006
      8.11469818e-006 1.08407958e-005 1.94812837e-005 2.37384520e-005
      2.36959841e-005 2.35172211e-005 1.41080172e-005 1.96545352e-005
      3.04462137e-005 3.11923432e-005 2.66658863e-005 1.11561358e-005
      -1.15300372e-005 -8.29249802e-006 -7.85786051e-006
      -1.64731700e-005 -2.21121190e-005 -1.71277170e-005
      -1.26108825e-005 -1.48660065e-005 -2.88908650e-005
      -4.36336995e-005 -4.54874571e-005 -4.44820434e-005
      -3.70948983e-005 -2.76492974e-005 -1.94408112e-005
      -1.07144169e-005 -6.49712092e-006 2.72252805e-006 5.06620609e-006
      1.46170587e-005 8.09084850e-006 1.51295990e-005 2.39793153e-005
      2.50111025e-005 1.21493458e-005 -4.28813883e-006 -1.77244001e-005
      -1.92373827e-005 -2.23317129e-005 -2.24229389e-005
      -2.01336497e-005 -7.18763795e-006 -2.65186736e-006 2.35941252e-006
      1.92565785e-005 1.92777461e-005 1.57523173e-005 9.11204279e-006
      -4.23379788e-006 -7.15095803e-006 -7.17258035e-006
      -1.36789386e-005 -2.08437286e-005 -2.38554949e-005
      -1.59115280e-005 -3.61083880e-006 -4.41132852e-006
      -1.61223907e-005 -6.55708664e-006 -1.34647337e-006
      -8.40712777e-010 -1.47705521e-006 8.13718714e-007 -6.08237224e-006
      -1.21411426e-006 -7.39785492e-006 -1.84595810e-005
      -2.90612334e-005 -1.88092727e-005 1.65716779e-006 1.23818263e-005
      1.21761877e-005 1.89888615e-005 1.74687648e-005 1.47759138e-005
      1.62884589e-005 1.96221863e-005 3.69538102e-005 5.09520542e-005
      3.98364464e-005 1.87049154e-005 -2.43010345e-006 -8.08069399e-006
      -9.27861038e-006 -9.61087153e-006 4.47916278e-007 5.30089892e-006
      4.44799571e-006 6.36869163e-006 9.77824311e-006 8.78103401e-006
      8.02266004e-006 1.70687272e-005 1.25564020e-005 2.29039360e-005
      3.93107803e-005 1.11239306e-005 -1.82882850e-005 -2.33486098e-005
      -1.84287510e-005 -2.04036623e-005 -1.67251255e-005
      -1.47600012e-005 -8.09150697e-006 2.25155782e-006 3.39292546e-006
      2.54507722e-006 -9.45213469e-006 -1.08305558e-005 -2.96942562e-006
      9.58202236e-006 1.69722844e-005 2.10058897e-005 1.68488077e-005
      1.52053581e-005 5.00479155e-006 1.71479605e-005 1.08488339e-005
      -4.59381636e-006 -1.98148082e-005 -2.00846152e-005
      -1.84509536e-005 -1.91594881e-005 -1.51186950e-005
      -5.73721218e-006 6.93603988e-006 2.06533950e-005 2.62754038e-005
      2.83913869e-005 2.42253172e-005 8.12354119e-006 -1.69024224e-006
      3.87585942e-006 -4.64600589e-007 1.02749727e-005 7.87375575e-006
      -8.74743637e-006 -1.73947319e-005 -1.19842334e-005
      -9.84565304e-006 -5.34109972e-007 1.37416964e-006 -1.14347904e-006
      4.88511205e-006 2.17787529e-005 2.61136083e-005 2.66536663e-005
      2.86584054e-005 1.60617128e-005 2.21272403e-005 3.45775043e-005
      2.66340030e-005 1.56076294e-005 2.77204663e-006 -1.80739080e-005
      -1.82111744e-005 -1.88765716e-005 -2.68311469e-005
      -3.13417731e-005 -2.36401829e-005 -1.95286502e-005
      -2.84783655e-005 -4.12560767e-005 -4.82270334e-005
      -4.55794725e-005 -4.43452082e-005 -4.38914612e-005
      -3.59299338e-005 -2.35635034e-005 -6.81505117e-006
      -6.94449909e-006 -3.32331138e-006 2.36549863e-006 6.75995670e-006
      -2.95344466e-006 1.04898627e-005 2.22448543e-005 2.99952299e-005
      1.93781307e-005 9.26701978e-006 -7.91151069e-006 -1.72602795e-005
      -1.85855733e-005 -1.90571227e-005 -1.36464241e-005 4.57624566e-007
      3.75902391e-006 8.20283219e-007 8.74269972e-006 1.10786777e-005
      9.49027981e-006 5.26697750e-006 2.01667467e-006 1.22026017e-006
      -8.03980220e-006 -1.51433560e-005 -2.01982675e-005
      -1.94405893e-005 -3.19779957e-007 5.55782117e-006 1.88662932e-006
      -8.72930377e-006 -2.78130710e-006 -1.13417673e-006
      -8.45332306e-006 -9.23658263e-006 -8.34961884e-006
      -1.57890429e-006 7.43734972e-006 2.66869324e-006 -1.02545891e-005
      -1.83172015e-005 -7.29234807e-006 4.32619890e-006 8.73147474e-006
      4.62869275e-006 1.44352525e-005 1.77553666e-005 1.96534893e-005
      1.78569608e-005 2.28231856e-005 3.82094549e-005 4.62901698e-005
      3.73466282e-005 2.03972977e-005 -4.60057845e-006 -1.47806286e-005
      -1.76111025e-005 -1.08545782e-005 -1.07064252e-005
      -5.55156703e-006 -1.30434719e-005 -1.38699334e-005
      -2.80222821e-006 -4.07247217e-006 2.99320300e-006 3.90117884e-006
      8.19868728e-006 2.03326526e-005 3.12482589e-005 1.25971364e-005
      -1.61349417e-005 -1.87913574e-005 -1.78253831e-005
      -1.71835436e-005 -1.45675058e-005 -1.43280622e-005
      -1.30998387e-005 -5.38832410e-006 -3.50955884e-006
      -6.27194549e-006 -1.62585984e-005 -1.82082131e-005
      -1.08032627e-005 6.89351509e-006 2.44494931e-005 2.42966762e-005
      2.53804319e-005 2.16332610e-005 2.73960795e-005 2.03311320e-005
      8.00107773e-006 -2.47353501e-006 -1.88560734e-005 -2.40327809e-005
      -2.43682352e-005 -2.33009087e-005 -1.84803484e-005
      -5.93106506e-006 1.66783684e-005 3.00192951e-005 3.74413030e-005
      3.88413137e-005 2.94146648e-005 1.39860858e-005 7.70071620e-006
      1.72413638e-005 9.04932949e-006 2.62786198e-005 1.86987982e-005
      4.64569757e-006 -3.24406801e-006 -3.59882438e-006 -9.01763724e-006
      -7.92664014e-006 3.85177054e-006 1.93007850e-006 1.22257516e-005
      2.71946919e-005 2.42646584e-005 2.50325338e-005 2.05841425e-005
      1.25757051e-005 1.91765466e-005 3.45269727e-005 3.28032620e-005
      1.98448815e-005 4.10256007e-006 -2.02618812e-005 -1.89239399e-005
      -2.01790954e-005 -2.86486920e-005 -3.57134923e-005
      -2.97217721e-005 -2.12490922e-005 -2.51906513e-005
      -3.04816331e-005 -4.40612603e-005 -4.32948837e-005
      -4.15315299e-005 -3.29404902e-005 -2.68898275e-005
      -2.14084630e-005 -1.28242655e-005 -7.93055642e-006 5.41724285e-006
      1.04355222e-005 8.19024081e-006 -7.53226857e-007 6.56522798e-006
      2.23019852e-005 2.78074585e-005 2.34240106e-005 1.46921193e-005
      -7.77492005e-007 -1.29103919e-005 -1.05190948e-005
      -1.09934372e-005 -1.26315399e-005 -2.65121071e-006
      -1.87147680e-006 -5.11939288e-006 6.51690425e-006 1.85971221e-005
      1.33186250e-005 1.53097444e-005 1.60357813e-005 7.74941418e-006
      -7.11861276e-006 -2.20501533e-005 -2.73581973e-005
      -2.01471121e-005 -3.79363337e-006 -3.44259092e-007
      -7.37730761e-006 -5.93636378e-006 -3.95633788e-006
      -4.11449128e-006 -1.02844815e-005 -5.78459185e-006 5.62415039e-007
      3.61826960e-006 1.12151411e-005 1.15586690e-005 -7.16533305e-006
      -1.33354142e-005 -8.20237165e-006 -2.10293865e-006
      -4.29740930e-006 8.16523766e-007 3.67631083e-006 5.02123748e-006
      1.39779877e-005 1.99562510e-005 3.02408771e-005 3.57428908e-005
      3.95592178e-005 3.01659329e-005 1.27626936e-005 -1.21826379e-005
      -2.54065708e-005 -2.40369864e-005 -2.41507605e-005
      -1.54466470e-005 -1.32201703e-005 -1.83329230e-005
      -1.74909565e-005 -1.59001956e-005 -1.43366351e-005
      -9.38958237e-006 -4.16179410e-006 -3.54837653e-006 1.62650049e-005
      3.44466935e-005 9.36841298e-006 -2.14872707e-005 -2.53846410e-005
      -2.91238248e-005 -3.49972906e-005 -3.04100904e-005
      -2.39665915e-005 -2.90374592e-005 -2.68699478e-005
      -1.26018858e-005 -1.56574988e-005 -2.04316566e-005
      -1.65820838e-005 -7.08768857e-006 3.38305358e-006 1.30360595e-005
      2.11670285e-005 2.54708975e-005 2.97485221e-005 3.36071134e-005
      1.13004626e-005 1.09219436e-005 8.85624740e-006 4.86538875e-006
      -4.22567382e-006 -8.69875566e-006 -2.02996907e-005
      -2.35995740e-005 -1.22035335e-005 7.81661311e-006 2.72637462e-005
      4.26133847e-005 4.70736813e-005 4.08683773e-005 2.47507469e-005
      2.43935447e-005 3.37843376e-005 2.85655187e-005 2.57449919e-005
      2.58273030e-005 1.46211260e-005 7.40869791e-006 2.83235249e-006
      -1.67391863e-005 -1.97289737e-005 -1.06083944e-005
      -2.47401385e-006 6.53146071e-006 1.76185749e-005 2.23666193e-005
      2.59392764e-005 1.28655292e-005 -3.80106235e-006 -1.84070950e-006
      1.76696449e-005 2.21134051e-005 1.22379333e-005 -1.24333019e-006
      -1.45784079e-005 -1.47908104e-005 -1.64990615e-005
      -1.67329345e-005 -1.90116643e-005 -1.59788560e-005
      -1.71393731e-005 -1.65451038e-005 -2.27352157e-005
      -3.13430028e-005 -3.25651599e-005 -3.30688526e-005
      -2.98123723e-005 -2.29013731e-005 -1.58150415e-005
      -7.49954006e-006 -5.94268749e-006 1.17122718e-005 1.04485698e-005
      1.69862574e-006 -2.94556889e-006 7.75323952e-006 1.74034194e-005
      2.36332471e-005 2.16052758e-005 1.56307124e-005 6.32786305e-006
      -1.36217830e-006 4.75877550e-006 4.62523030e-006 -2.11741303e-006
      1.37102029e-006 -6.09276731e-006 3.25740757e-006 2.00179584e-005
      2.79878805e-005 3.02770786e-005 2.28711597e-005 1.65880374e-005
      6.51644859e-006 -5.26954364e-006 -1.44114620e-005 -1.53936671e-005
      -3.93141818e-006 -2.01206967e-006 -3.42118528e-006
      -1.52912526e-005 -8.86144699e-006 -6.28012231e-006
      -1.71761144e-006 1.40231032e-006 3.28896908e-006 1.95588746e-005
      2.38178709e-005 2.22759681e-005 1.25647148e-005 -1.18958696e-005
      -2.10232083e-005 -1.27188241e-005 -8.27346958e-006
      -5.14419526e-006 -6.90009529e-007 -1.96140604e-006 4.62770731e-006
      1.02798022e-005 1.94274799e-005 2.51489491e-005 3.40809493e-005
      3.17155609e-005 2.02649007e-005 2.07218659e-006 -1.36108083e-005
      -2.46955697e-005 -2.49971472e-005 -2.58459786e-005
      -2.53233720e-005 -2.18929999e-005 -2.46542731e-005
      -2.25613949e-005 -2.52156151e-005 -1.89357816e-005
      -1.38697278e-005 -7.57998259e-006 -1.54093095e-006 2.28825629e-005
      3.95843672e-005 1.16601245e-006 -3.13615856e-005 -3.70324087e-005
      -4.36745468e-005 -4.89455851e-005 -4.26493789e-005
      -3.32172131e-005 -3.52651114e-005 -1.91016879e-005
      -8.96821712e-006 -1.03151779e-005 -1.29738828e-005
      -9.53403833e-006 1.43201964e-006 6.12714530e-006 1.16428719e-005
      2.06416589e-005 3.74482515e-005 4.28997955e-005 4.07904590e-005
      2.77613417e-005 2.41064681e-005 2.16200406e-005 1.50937167e-005
      1.55780492e-006 -7.30449892e-006 -1.84803775e-005 -2.82280034e-005
      -2.53807375e-005 -3.99444434e-006 1.93738524e-005 3.30843723e-005
      4.18667660e-005 4.04343300e-005 2.64110495e-005 3.93583068e-005
      4.13527632e-005 3.46757697e-005 3.00882548e-005 2.84139387e-005
      2.23711904e-005 1.23853542e-005 4.04543789e-006 1.11316388e-006
      -1.40612724e-006 -1.39733334e-006 -6.07865377e-006 6.75837464e-006
      1.70101666e-005 2.09059908e-005 3.15597827e-005 2.20304810e-005
      5.19316927e-006 -6.63322623e-007 -6.69682595e-006 7.73147440e-006
      -2.65791272e-007 -7.45573152e-006 -1.63746809e-005
      -1.16766887e-005 -1.37282941e-005 -1.55517409e-005
      -1.72181972e-005 -1.22399542e-005 -1.77796119e-005
      -1.82213225e-005 -2.13035619e-005 -3.11360200e-005
      -3.12478733e-005 -2.77120344e-005 -2.40795416e-005
      -1.87798596e-005 -1.74292143e-006 1.80344668e-005 2.00718441e-005
      1.97656500e-005 1.04894534e-005 1.36358858e-006 -4.25282406e-006
      -7.93153490e-008 1.07682654e-005 2.15589680e-005 1.37730804e-005
      6.58787394e-006 1.94034783e-006 -2.61047103e-006 3.67133407e-006
      9.05432080e-006 2.76141918e-006 1.16536319e-006 4.72855436e-006
      6.54916812e-006 2.93291760e-005 3.63573927e-005 3.88083172e-005
      3.39391008e-005 2.88638221e-005 1.80128809e-005 1.35825542e-006
      -8.73743193e-006 -4.82646919e-006 2.29421417e-007 4.18403170e-006
      4.01043371e-006 2.41274188e-006 -3.99671649e-007 -3.92235506e-006
      6.82725340e-006 2.08762467e-005 2.05633660e-005 2.94408819e-005
      3.62882056e-005 3.26395093e-005 7.93494928e-006 -1.38904243e-005
      -2.57828051e-005 -2.22953622e-005 -2.20005277e-005
      -1.36675480e-005 -9.12024461e-006 -7.88416401e-006 1.23764794e-005
      2.64990285e-005 2.79763881e-005 3.04255354e-005 3.28464157e-005
      3.32956915e-005 2.58176515e-005 6.01732972e-006 -1.24238923e-005
      -2.38738976e-005 -1.91006220e-005 -1.66188693e-005
      -2.51549900e-005 -2.79537926e-005 -2.67065570e-005
      -2.30887999e-005 -2.61722653e-005 -2.68877047e-005
      -2.31729809e-005 -1.27480525e-005 -4.63351898e-006 1.63896093e-005
      3.87601867e-005 1.99356990e-007 -3.41925588e-005 -3.99850978e-005
      -4.51888991e-005 -4.87671750e-005 -4.62090684e-005
      -3.99533601e-005 -4.04915045e-005 -2.54549304e-005
      -1.73521639e-005 -1.61881308e-005 -1.35457894e-005
      -1.30524604e-005 -1.41719102e-005 -1.01026690e-005 7.81443816e-008
      1.72957079e-005 3.28681708e-005 3.38745522e-005 2.89294967e-005
      2.42903134e-005 1.29714226e-005 1.63385012e-005 7.68233258e-006
      -7.20827529e-006 -1.73234257e-005 -2.38492994e-005
      -2.52778791e-005 -2.28277513e-005 -4.90359798e-006 1.28464490e-005
      2.63252532e-005 3.13133278e-005 3.39434555e-005 2.90582993e-005
      2.98907016e-005 2.60966426e-005 1.86431789e-005 1.24514145e-005
      2.04292646e-005 1.17792142e-005 8.69021108e-007 6.10017253e-007
      5.02401053e-006 3.20798995e-006 4.31586813e-007 -1.15712908e-007
      3.75197578e-006 7.79708807e-006 1.81564465e-005 2.64800492e-005
      1.56031165e-005 7.07211984e-006 2.44970147e-006 -4.77794447e-006
      -9.88247120e-006 -1.84891196e-005 -2.92129916e-005
      -2.55975465e-005 -2.05344040e-005 -1.95816810e-005
      -2.69122011e-005 -1.66249338e-005 -8.51656932e-006
      -1.52284556e-005 -1.68664083e-005 -2.29773377e-005
      -3.20585532e-005 -2.92550594e-005 -2.32684743e-005
      -1.89416060e-005 -1.35434911e-005 5.34736546e-006 2.36952128e-005
      3.01658383e-005 2.19217509e-005 2.26066345e-006 -7.26897633e-006
      -1.11725003e-005 -1.45387162e-006 1.08356080e-005 1.36528552e-005
      2.25144436e-006 -1.35308528e-006 -7.59199384e-006 -5.10006976e-006
      2.15900900e-006 4.17516867e-006 -1.10547785e-006 -2.08827714e-006
      3.83122915e-006 5.01814066e-006 2.11551633e-005 3.46782399e-005
      3.26298068e-005 3.24963148e-005 2.80996701e-005 1.12685566e-005
      -5.94177845e-006 -1.13948408e-005 -6.37070525e-006
      -6.86127305e-006 -3.58424700e-006 -8.78580920e-007 9.84284270e-007
      6.91317064e-006 2.19255435e-006 2.48280753e-006 1.37958705e-005
      3.10044816e-005 4.03649465e-005 4.08159940e-005 2.55562409e-005
      -5.12939721e-007 -2.26766988e-005 -3.35535588e-005
      -2.89574036e-005 -2.10235430e-005 -1.68531842e-005
      -9.04075478e-006 3.09762981e-007 1.63536006e-005 2.76263418e-005
      3.05731883e-005 3.34922697e-005 3.07325208e-005 3.29617069e-005
      2.82333749e-005 1.03655429e-005 -5.70760403e-006 -1.40453640e-005
      -1.88502217e-005 -2.25629392e-005 -2.58541368e-005
      -2.45659612e-005 -2.45126084e-005 -2.94162965e-005
      -3.02850804e-005 -2.46284799e-005 -2.53966246e-005
      -1.29743885e-005 -5.33106640e-006 1.27483154e-005 3.54510667e-005
      3.47897026e-006 -2.97865208e-005 -4.03641243e-005 -4.46905105e-005
      -4.98723639e-005 -4.37802446e-005 -3.99060445e-005
      -3.96265605e-005 -2.74862705e-005 -2.55041668e-005
      -1.94176755e-005 -1.84920191e-005 -1.70465646e-005
      -1.63179884e-005 -7.14651105e-006 5.87162504e-006 1.41832998e-005
      1.71286465e-005 1.87644328e-005 1.59813317e-005 1.50123997e-005
      5.26828035e-006 6.95322058e-007 -5.85380485e-006 -1.96056153e-005
      -3.11068798e-005 -3.83381157e-005 -4.20657125e-005
      -3.13361561e-005 -1.27773983e-005 1.60171203e-006 1.04556584e-005
      1.52781213e-005 1.91976542e-005 1.25706474e-005 1.12983753e-005
      6.45449336e-006 4.76918967e-006 -3.30235594e-006 -4.09952281e-006
      -1.84390819e-006 -2.44344665e-006 1.20880586e-007 3.16233439e-007
      6.52463086e-007 -5.75295417e-006 -1.00713523e-005 -8.91635682e-006
      -5.25140331e-006 -2.63495485e-006 -2.68932422e-006 6.72691044e-007
      -4.54187239e-006 -1.10521523e-005 -1.73673488e-005
      -2.12621326e-005 -2.81442572e-005 -3.52581119e-005
      -2.74015947e-005 -2.29751768e-005 -2.02803803e-005
      -1.93190081e-005 -1.52160701e-005 -8.26069936e-006
      -8.17921136e-006 -7.29685371e-006 -1.72558157e-005
      -2.29794096e-005 -2.35311691e-005 -2.27824603e-005
      -1.90027986e-005 -1.16948650e-005 -8.54422865e-007 1.29611926e-005
      2.07965986e-005 1.89423463e-005 1.09777066e-005 -9.91870252e-007
      -2.31001172e-006 6.91514924e-006 1.76342346e-005 1.80686147e-005
      8.11984864e-006 -1.39505198e-006 -6.50778111e-006 -8.34474486e-006
      -2.62755179e-006 -2.29117447e-007 -5.50119830e-006
      -2.96753592e-006 -4.59808280e-006 6.21368463e-006 1.44039659e-005
      2.32642524e-005 2.53446397e-005 2.90077041e-005 1.98259677e-005
      2.34898062e-006 -1.12069592e-005 -1.58358762e-005 -1.11012105e-005
      1.01094463e-006 -7.07313757e-006 6.27848931e-006 6.71384942e-006
      1.35650826e-005 8.68658299e-006 6.97635005e-006 2.05495799e-005
      3.57539102e-005 3.84806917e-005 3.09216521e-005 1.63031655e-005
      -1.32442792e-005 -3.37129532e-005 -3.79767553e-005
      -3.90167625e-005 -3.28345050e-005 -2.06621226e-005
      -9.71279223e-006 3.72394766e-006 1.53546698e-005 1.79547824e-005
      1.55250327e-005 1.16326919e-005 1.26195846e-005 9.80420828e-006
      7.34932837e-006 -3.61186767e-006 -9.38822632e-006 -1.45695367e-005
      -2.03902200e-005 -2.29915422e-005 -2.78390453e-005
      -2.21944192e-005 -2.63707589e-005 -2.87378061e-005
      -2.65588333e-005 -1.98040852e-005 -2.23698989e-005
      -4.14200531e-006 8.28745840e-007 1.66900936e-005 4.00704012e-005
      2.54656516e-006 -2.08095298e-005 -3.25919173e-005 -3.67331377e-005
      -4.11383953e-005 -3.03208217e-005 -2.65351191e-005
      -3.33485041e-005 -3.31381889e-005 -2.21922328e-005
      -1.62044580e-005 -1.40079110e-005 -1.30928920e-005
      -9.81059293e-006 -5.51767698e-007 1.39366884e-005 2.25924978e-005
      2.21078317e-005 2.78794796e-005 3.22216511e-005 2.63874408e-005
      1.95789835e-005 6.79772756e-006 -8.97321740e-007 -2.49062873e-006
      -1.07011992e-005 -2.00637787e-005 -2.33103929e-005
      -2.70093642e-005 -1.24618819e-005 -6.93043830e-006
      -1.55383395e-006 9.58281180e-006 9.25856057e-006 5.01001068e-006
      1.58658133e-006 -7.21359896e-008 -9.60963348e-007 -8.28323573e-006
      -1.57762261e-005 -1.56814422e-005 -4.41193242e-006
      -4.12162444e-006 -6.27636973e-006 -9.81854373e-006
      -1.34896081e-005 -1.53168949e-005 -1.60655127e-005
      -1.88684571e-005 -2.66208135e-005 -1.88411614e-005
      -1.41750879e-005 -2.28142471e-005 -3.17475024e-005
      -3.36339835e-005 -3.15780489e-005 -3.10270952e-005
      -3.40212864e-005 -2.65421004e-005 -1.82930216e-005
      -1.41965393e-005 -1.73196277e-005 -1.85480658e-005
      -2.20366201e-005 -2.30525511e-005 -2.41197358e-005
      -2.46089603e-005 -2.42491205e-005 -2.49869026e-005
      -2.14462252e-005 -1.98945636e-005 -1.26674267e-005
      -5.88438070e-006 -3.67176585e-006 1.10562196e-005 1.46480170e-005
      1.27843568e-005 5.83923156e-006 1.10125666e-006 -1.18930666e-006
      1.32779687e-005 6.78620472e-006 -2.89714467e-006 -3.94610515e-006
      -1.31196821e-005 -1.38580826e-005 -1.13050892e-005
      -1.31689103e-005 -1.19445440e-005 -1.83148870e-006 5.16074408e-007
      4.32767865e-006 1.61621392e-005 1.78530190e-005 1.71888296e-005
      1.02720269e-005 -6.03341823e-006 -1.07353462e-005 -1.49469170e-005
      -1.72196997e-005 -2.07084558e-005 -2.15407435e-005
      -1.27415251e-005 -6.01580905e-006 5.27891359e-007 7.68720656e-006
      9.22311119e-006 1.88103186e-005 2.29122106e-005 2.09774225e-005
      1.88307458e-005 1.18639136e-005 -7.83375526e-006 -1.97826794e-005
      -3.10508840e-005 -3.01682867e-005 -3.34437063e-005
      -3.53476244e-005 -2.53812123e-005 -1.32632795e-005 2.78950074e-006
      1.16425144e-005 9.56088115e-008 -3.19627861e-006 -5.98241513e-006
      -3.76711137e-006 -3.34834954e-006 -7.43110786e-006
      -1.35785003e-005 -1.71403572e-005 -1.77373513e-005
      -1.96937999e-005 -2.09297650e-005 -2.18908772e-005
      -1.82244294e-005 -2.00328541e-005 -1.98774051e-005
      -1.82985186e-005 -1.84545152e-005 -1.86517427e-005
      -2.79616506e-006 -1.43744342e-006 1.44360929e-005 3.53859214e-005
      5.43243050e-006 -1.38085406e-005 -1.63334607e-005 -1.90388491e-005
      -2.20702277e-005 -1.32874466e-005 -8.43631824e-006
      -1.12750567e-005 -1.15997591e-005 -1.69118084e-005
      -1.74515644e-005 -7.99428290e-006 -7.53793438e-006
      -4.78011270e-006 -2.46181656e-007 1.32612658e-005 1.91830313e-005
      1.66683640e-005 1.67559028e-005 1.56606802e-005 1.55946236e-005
      1.44850746e-005 9.34107175e-006 8.26887663e-006 2.21108166e-006
      -2.10525945e-006 -2.80665489e-007 -1.38228430e-007
      -3.17661238e-006 -3.25617998e-006 -6.54559017e-007 3.34983679e-006
      4.49228037e-006 5.18924207e-006 -5.39069060e-006 -1.07662117e-005
      -8.87930582e-006 -7.35708454e-006 -1.33665426e-005
      -1.10875399e-005 -1.52342654e-005 -1.95547582e-005
      -2.24760352e-005 -2.07382454e-005 -1.59679785e-005
      -2.01650291e-005 -2.74071663e-005 -2.97188126e-005
      -3.21005318e-005 -2.99933272e-005 -2.69331085e-005
      -2.12955383e-005 -1.72987020e-005 -2.09083373e-005
      -2.34359795e-005 -2.47947901e-005 -2.63664788e-005
      -2.30816695e-005 -1.71682386e-005 -1.17027730e-005
      -1.02168233e-005 -1.16037836e-005 -1.36866802e-005
      -1.97057434e-005 -2.10696417e-005 -1.69033829e-005
      -1.78876726e-005 -1.59724004e-005 -1.20243185e-005
      -8.78412266e-006 -4.85873989e-006 -6.23509050e-006
      -2.64635469e-006 -1.57708780e-006 3.01943533e-006 6.25618350e-006
      8.90555020e-006 5.30442230e-006 1.65721610e-006 -6.12005306e-006
      -9.13535132e-006 -7.18893489e-006 -1.14477371e-005
      -1.55425314e-005 -1.46265247e-005 -1.16760903e-005
      -1.23516320e-005 -1.39491758e-005 -1.15129678e-005
      -8.29583951e-006 -4.00373074e-006 -4.76155765e-006
      -8.02048271e-006 -1.11427116e-005 -1.22718839e-005
      -9.03486580e-006 -1.40649845e-005 -1.57054164e-005
      -2.07281428e-005 -2.32220609e-005 -2.14819866e-005
      -1.79375857e-005 -2.01594667e-005 -2.04815169e-005
      -1.43931666e-005 -9.94103539e-006 -4.20486595e-006
      -5.26346230e-006 -5.87549448e-006 -8.45384420e-006
      -1.24885592e-005 -1.63688492e-005 -1.69833111e-005
      -1.93724736e-005 -2.53797680e-005 -2.62978901e-005
      -2.45193278e-005 -2.53693215e-005 -2.36624001e-005
      -1.72357886e-005 -8.59656302e-006 -6.28912130e-006
      -6.80795620e-006 -1.23427790e-005 -1.44735868e-005
      -1.74902434e-005 -1.73510216e-005 -1.77853362e-005
      -1.72439413e-005 -2.12478535e-005 -2.48420001e-005
      -1.99351962e-005 -2.02081083e-005 -1.56865972e-005
      -1.45833865e-005 -1.32828000e-005 -9.77333821e-006
      -7.25015389e-006 -5.49003471e-006 -3.47921446e-006
      -2.01705620e-006 -2.11619067e-006 1.44189244e-005 3.93011869e-005
      5.37322376e-006 -1.99059305e-005 -2.39086639e-005 -2.30378137e-005
      -2.28816061e-005 -1.69500163e-005 -6.42009263e-006
      -5.65012851e-006 -5.39736675e-006 -7.04901186e-006
      -1.11631289e-005 -1.08180129e-005 -9.39422989e-006
      -8.29090368e-006 -7.42134762e-006 -6.31641387e-006
      -2.18518153e-006 2.86316435e-006 2.61904802e-006 2.57372722e-006
      2.10646272e-006 9.45448562e-007 -9.53162555e-007 1.93288102e-007
      -1.06142454e-006 6.19720822e-006 1.04755463e-005 1.17062136e-005
      1.29099508e-005 1.12291755e-005 6.53630468e-006 8.52076391e-006
      -1.29238890e-006 -5.40636938e-006 -1.62637832e-006
      -5.44787599e-006 -7.98282963e-006 -7.37905793e-006
      -5.64608490e-006 -1.38589098e-006 -5.38405220e-006
      -7.69943745e-006 -9.48194793e-006 -9.23979314e-006
      -9.30526494e-006 -1.78422797e-005 -2.09436603e-005
      -2.25144759e-005 -2.72206489e-005 -2.64037662e-005
      -2.40652644e-005 -2.32013172e-005 -2.24907326e-005
      -2.57891152e-005 -2.75150505e-005 -2.40708687e-005
      -2.22135077e-005 -2.27374749e-005 -2.48626311e-005
      -2.31683443e-005 -2.36021024e-005 -2.34896343e-005
      -2.28497865e-005 -2.67375071e-005 -2.57089832e-005
      -2.34552645e-005 -2.04808930e-005 -1.71870306e-005
      -1.52935427e-005 -1.27440180e-005 -1.20937439e-005
      -1.16037845e-005 -1.05193803e-005 -8.67404196e-006
      -1.27631165e-005 -1.08778186e-005 -1.35740347e-005
      -1.58113307e-005 -1.90623159e-005 -2.01031089e-005
      -1.81502655e-005 -1.32330952e-005 -1.62813922e-005
      -2.24949781e-005 -2.40951540e-005 -2.38691373e-005
      -2.38570592e-005 -2.68481926e-005 -2.59237822e-005
      -2.35295265e-005 -2.11540228e-005 -2.30300338e-005
      -1.64555440e-005 -1.43661955e-005 -1.16665215e-005
      -1.53827259e-005 -1.81858359e-005 -2.06676996e-005
      -1.86760262e-005 -1.72700238e-005 -1.55216894e-005
      -1.74722936e-005 -1.66047139e-005 -1.55514845e-005
      -1.28560450e-005 -1.89902003e-005 -2.03667350e-005
      -1.76299654e-005 -2.08032616e-005 -1.69731520e-005
      -1.21474313e-005 -8.18677017e-006 -5.75685726e-006
      -1.03704160e-005 -8.12395137e-006 -5.76722687e-006
      -1.91585264e-006 -1.90327614e-006 -7.55479505e-006
      -1.06154348e-005 -1.61103726e-005 -1.09570701e-005
      -6.10398774e-006 -8.76327522e-006 -7.75431181e-006
      -6.71022735e-006 -1.23680447e-005 -1.15152561e-005
      -8.68755706e-006 -1.21901849e-005 -1.13536253e-005
      -1.40064722e-005 -1.19141969e-005 -9.82241454e-006
      -8.59772717e-006 -8.88226805e-006 -4.70581017e-006
      -5.08469020e-006 -4.95485847e-006 -8.55868893e-006
      -5.03904357e-006 -1.84473117e-006 1.86958041e-005 3.23458989e-005
      2.03483960e-005 -9.14983866e-006 -1.80558218e-005 -2.08714046e-005
      -1.74844245e-005 -1.10401352e-005 -3.29384102e-006 2.66480043e-007
      1.20941161e-006 1.46928403e-006 -2.35087259e-006 -3.70110865e-006
      -1.41048145e-006 3.82036160e-006 3.37718097e-006 2.95114728e-006
      4.04313732e-006 4.62100706e-006 7.10138465e-006 7.91005186e-006
      1.08673776e-005 1.31033521e-005 1.63039185e-005 1.45769600e-005
      1.22976280e-005 4.31662556e-006 8.40553821e-006 9.42988390e-006
      4.16747116e-006 5.12283486e-006 4.78871743e-006 5.47161289e-006
      1.26140030e-005 9.85849147e-006 3.72070554e-006 5.43993053e-007
      8.79706931e-007 5.64305037e-006 5.07539016e-006 7.00406099e-006
      4.61997070e-006 3.06959305e-006 1.77329468e-006 8.51776463e-007
      4.77939329e-006 6.58806675e-006 6.14084183e-006 1.68034273e-006
      -9.46383534e-006 -9.97258394e-006 -8.63079094e-006
      -8.53688834e-006 -7.45714851e-006 -6.07742322e-006
      -7.62555419e-006 -3.68427413e-006 5.40297287e-006 7.78735648e-006
      9.01180920e-006 9.34368927e-006 5.39701296e-006 3.45855895e-008
      2.32385401e-006 2.73093207e-007 1.11495069e-006 2.60337856e-006
      1.26606960e-006 -2.90693151e-007 6.99859982e-007 1.10382769e-006
      2.80343875e-006 1.86014620e-006 6.93459060e-006 5.06922606e-006
      6.62652246e-006 1.65935376e-006 -2.65971221e-006 -2.01678881e-006
      -2.07361495e-006 -4.66361689e-006 -2.34520917e-006
      -3.13672354e-006 -5.76368393e-006 -7.57920679e-006
      -5.11734561e-006 -5.96976906e-006 -6.48788591e-006
      -8.01088845e-006 -6.72645137e-006 1.30890260e-006 4.34564527e-006
      1.44590126e-006 -1.23680979e-006 -3.38454038e-006 1.60126422e-006
      4.84527436e-006 5.85058933e-006 6.33447053e-006 7.91409093e-006
      9.47684384e-006 7.36263019e-006 6.73531849e-006 5.81076574e-006
      1.06112861e-006 5.18773049e-007 -1.69323312e-006 -3.18079788e-006
      -6.72255510e-006 -1.25893566e-005 -9.18474598e-006 1.19097115e-006
      6.06657159e-006 1.10962746e-005 8.61856643e-006 1.29327755e-005
      1.87450096e-005 2.22242488e-005 2.14629054e-005 1.71296706e-005
      9.05863271e-006 7.27059160e-006 9.48512752e-006 8.07589822e-006
      3.85935209e-006 4.58064278e-006 7.46659407e-006 9.85033239e-006
      5.93224195e-006 5.58435613e-006 3.13498390e-006 2.18178548e-006
      1.90923947e-006 3.86145166e-006 5.74133765e-006 8.84878136e-006
      7.40976793e-006 1.20178429e-005 1.39760396e-005 1.47477849e-005
      1.16379333e-005 1.32767891e-005 1.21889234e-005 2.15342006e-005
      2.26116081e-005 4.04168532e-005 3.20096951e-005 2.61192781e-005
      2.48341166e-005 2.94310466e-005 3.46164452e-005 3.30567273e-005
      3.25291912e-005 3.34267461e-005 3.44053769e-005 3.46893285e-005
      3.50904666e-005 3.65203523e-005 3.85789208e-005 3.90161731e-005
      3.77613324e-005 3.62182254e-005 3.58678481e-005 3.51329218e-005
      3.51660310e-005 3.65347696e-005 3.53935320e-005 3.45095686e-005
      3.37935671e-005 2.87269704e-005 1.32666310e-005 1.13292926e-005
      7.80948358e-006 7.18645106e-006 8.18614808e-006 5.96882046e-006
      5.97788267e-006 2.37894674e-005 2.47001062e-005 2.21377923e-005
      2.16180979e-005 2.30427140e-005 2.55317009e-005 2.97610295e-005
      2.97564820e-005 2.57668489e-005 2.26859047e-005 2.18870118e-005
      2.04138796e-005 2.12081632e-005 2.37360819e-005 2.47885637e-005
      2.32992334e-005 1.92748066e-005 1.95959146e-005 2.02962638e-005
      1.97366371e-005 1.94939330e-005 1.94904042e-005 2.12085815e-005
      2.01146122e-005 1.99662591e-005 2.33698338e-005 2.46952877e-005
      2.36053766e-005 2.18513960e-005 2.23040170e-005 2.18500154e-005
      2.04512744e-005 2.07460344e-005 1.94322820e-005 1.52588036e-005
      1.16781721e-005 8.23645405e-006 4.77215463e-006 3.75747413e-006
      5.39869916e-006 2.40463532e-006 3.13871760e-006 5.99604448e-007
      -4.50310523e-007 1.40518773e-006 3.12305292e-006 3.40635074e-006
      3.71539204e-006 3.77042829e-006 3.73368925e-006 5.37005189e-006
      5.92713150e-006 3.88277840e-006 4.71856902e-006 7.86391320e-006
      7.43215287e-006 1.05323625e-005 1.10070960e-005 1.07175219e-005
      1.06012976e-005 9.73906026e-006 1.26564209e-005 1.52942175e-005
      1.73866647e-005 1.75750156e-005 1.88920112e-005 1.97602476e-005
      2.04767566e-005 1.96507517e-005 1.80996522e-005 1.59737228e-005
      1.34357797e-005 1.13819797e-005 9.31163777e-006 8.26606083e-006
      6.06505910e-006 4.27628947e-006 3.03832599e-006 1.72159798e-006
      3.54346480e-006 6.16908301e-006 3.23085874e-006 3.15971624e-006
      9.08625134e-006 8.93712786e-006 7.73572992e-006 9.74882005e-006
      7.79797210e-006 8.10449728e-006 7.89683418e-006 8.42930785e-006
      9.21636820e-006 9.60893613e-006 1.15432549e-005 1.14112054e-005
      1.09651037e-005 1.22297215e-005 1.47817800e-005 1.85174213e-005
      1.56748047e-005 1.58861585e-005 1.65442307e-005 1.73690787e-005
      1.73706994e-005 1.80100960e-005 2.04838252e-005 1.69992109e-005
      1.00753923e-005 1.11419349e-005 4.56251837e-006 3.51387456e-007
      -7.27484257e-006</_></support_vectors>
  <uncompressed_sv_total>44</uncompressed_sv_total>
  <uncompressed_support_vectors>
    <_>
      22. 47. 92. 103. 100. 100. 103. 103. 103. 103. 103. 103. 103. 103.
      103. 103. 100. 100. 103. 108. 110. 108. 105. 103. 103. 100. 100.
      100. 103. 100. 100. 103. 108. 108. 110. 108. 103. 98. 96. 96. 96.
      98. 98. 98. 100. 98. 98. 98. 98. 98. 98. 98. 98. 98. 96. 98. 96.
      96. 94. 94. 96. 96. 98. 98. 98. 98. 98. 98. 98. 98. 98. 98. 98.
      98. 98. 98. 100. 105. 100. 98. 98. 96. 98. 98. 100. 103. 110. 116.
      119. 116. 112. 105. 103. 103. 103. 103. 103. 103. 103. 103. 103.
      103. 103. 103. 103. 103. 103. 103. 103. 103. 103. 103. 103. 103.
      103. 103. 103. 108. 108. 108. 108. 110. 110. 112. 114. 114. 114.
      114. 116. 112. 110. 114. 116. 116. 119. 121. 124. 128. 130. 131.
      129. 108. 46. 25. 41. 86. 131. 128. 126. 124. 123. 120. 119. 117.
      117. 116. 114. 114. 112. 112. 110. 110. 105. 94. 91. 96. 110. 112.
      112. 112. 112. 110. 112. 112. 116. 112. 96. 87. 78. 85. 94. 108.
      112. 108. 108. 108. 110. 110. 108. 108. 110. 110. 110. 110. 110.
      112. 112. 110. 110. 110. 108. 108. 105. 108. 108. 110. 110. 110.
      108. 105. 108. 110. 108. 108. 105. 110. 108. 108. 108. 105. 91.
      74. 77. 94. 105. 105. 108. 105. 105. 108. 114. 119. 121. 120. 116.
      112. 100. 84. 65. 74. 91. 103. 110. 108. 108. 108. 108. 108. 110.
      108. 100. 80. 53. 58. 90. 108. 108. 108. 110. 110. 93. 77. 68. 68.
      70. 74. 75. 77. 78. 80. 84. 87. 96. 124. 135. 138. 139. 141. 144.
      148. 152. 155. 157. 160. 153. 133. 60. 33. 53. 116. 157. 155. 153.
      150. 148. 147. 143. 141. 139. 136. 134. 132. 131. 130. 129. 130.
      94. 45. 28. 47. 94. 120. 119. 119. 119. 117. 119. 119. 92. 49. 32.
      19. 15. 21. 33. 49. 90. 112. 112. 112. 116. 120. 121. 123. 124.
      124. 124. 124. 123. 119. 117. 119. 117. 117. 114. 112. 112. 112.
      112. 112. 112. 114. 114. 112. 114. 116. 116. 116. 116. 116. 114.
      114. 117. 96. 45. 17. 29. 72. 112. 114. 116. 117. 116. 119. 120.
      124. 128. 128. 124. 119. 65. 26. 10. 24. 58. 116. 120. 123. 123.
      124. 124. 126. 126. 128. 105. 44. 11. 26. 78. 130. 131. 132. 136.
      133. 70. 28. 13. 13. 13. 13. 14. 15. 15. 15. 17. 18. 40. 112. 160.
      207. 237. 247. 247. 255. 255. 255. 255. 255. 155. 130. 63. 35. 55.
      119. 247. 247. 237. 237. 237. 237. 237. 207. 163. 160. 157. 157.
      157. 157. 157. 149. 82. 22. 5. 38. 114. 141. 138. 138. 138. 136.
      136. 116. 46. 13. 2. 1. 3. 2. 3. 12. 45. 96. 131. 131. 129. 112.
      92. 87. 85. 85. 84. 85. 93. 121. 132. 116. 68. 55. 88. 120. 126.
      124. 124. 124. 126. 126. 126. 126. 129. 129. 129. 130. 131. 132.
      133. 135. 133. 85. 23. 1. 22. 84. 133. 133. 135. 136. 136. 138.
      139. 141. 144. 143. 144. 116. 41. 3. 0. 12. 63. 139. 147. 144.
      147. 149. 150. 150. 150. 143. 86. 25. 1. 25. 93. 155. 155. 157.
      163. 153. 65. 12. 0. 1. 4. 7. 7. 7. 7. 3. 0. 0. 22. 94. 207. 237.
      247. 247. 247. 247. 255. 255. 255. 255. 155. 129. 60. 34. 54. 117.
      237. 237. 237. 237. 237. 237. 237. 237. 237. 247. 247. 237. 151.
      138. 124. 80. 31. 6. 5. 44. 135. 247. 163. 163. 160. 160. 148. 77.
      18. 5. 16. 41. 49. 44. 22. 6. 16. 61. 143. 160. 138. 60. 29. 23.
      22. 21. 19. 20. 38. 94. 152. 105. 36. 18. 55. 135. 151. 149. 149.
      149. 149. 149. 149. 149. 150. 150. 151. 152. 151. 138. 123. 96.
      65. 34. 6. 1. 31. 114. 157. 157. 160. 157. 160. 160. 163. 163.
      207. 237. 152. 74. 18. 1. 1. 17. 85. 160. 207. 237. 237. 207. 150.
      130. 94. 56. 26. 5. 1. 29. 108. 247. 237. 207. 247. 160. 70. 13.
      2. 26. 50. 65. 66. 66. 63. 42. 9. 2. 35. 124. 247. 237. 237. 247.
      247. 247. 255. 255. 255. 255. 153. 128. 61. 33. 54. 114. 207. 237.
      237. 237. 237. 237. 237. 237. 237. 237. 247. 149. 90. 41. 28. 14.
      3. 1. 7. 44. 135. 247. 207. 207. 207. 237. 129. 44. 9. 16. 56.
      133. 148. 138. 77. 24. 8. 37. 121. 255. 147. 70. 36. 29. 29. 28.
      16. 6. 18. 78. 157. 110. 30. 12. 50. 140. 237. 207. 207. 207. 207.
      207. 163. 163. 163. 163. 163. 207. 152. 92. 43. 24. 12. 3. 0. 1.
      33. 119. 207. 207. 207. 207. 207. 207. 207. 207. 207. 237. 128.
      39. 7. 1. 1. 16. 82. 155. 207. 207. 207. 160. 110. 44. 21. 10. 2.
      0. 1. 28. 100. 237. 207. 207. 247. 160. 72. 14. 8. 47. 134. 157.
      160. 160. 147. 61. 11. 9. 50. 147. 247. 237. 237. 247. 247. 247.
      247. 255. 255. 255. 153. 128. 61. 35. 54. 114. 207. 237. 237. 237.
      237. 237. 237. 237. 237. 237. 247. 141. 55. 16. 9. 8. 5. 2. 7. 44.
      134. 255. 207. 207. 207. 237. 98. 30. 8. 37. 119. 255. 237. 247.
      134. 45. 8. 23. 91. 163. 160. 139. 123. 119. 121. 117. 54. 15. 18.
      80. 157. 112. 31. 12. 51. 140. 237. 207. 207. 207. 207. 207. 163.
      163. 163. 163. 163. 163. 152. 84. 30. 15. 16. 11. 2. 2. 34. 119.
      207. 207. 207. 207. 207. 207. 207. 207. 237. 150. 72. 17. 2. 1. 1.
      17. 84. 157. 207. 207. 207. 157. 105. 43. 24. 25. 17. 6. 1. 28.
      105. 237. 207. 207. 247. 163. 96. 42. 36. 86. 150. 255. 247. 255.
      126. 39. 7. 25. 93. 207. 247. 237. 247. 247. 247. 247. 247. 255.
      255. 255. 152. 124. 60. 36. 53. 110. 207. 237. 237. 237. 237. 237.
      237. 237. 237. 237. 237. 155. 119. 72. 60. 60. 39. 10. 6. 43. 134.
      255. 207. 207. 207. 207. 123. 51. 41. 75. 143. 237. 207. 237. 139.
      47. 9. 21. 88. 163. 237. 207. 207. 207. 237. 237. 90. 24. 20. 82.
      160. 117. 33. 12. 51. 140. 247. 207. 207. 207. 207. 207. 207. 163.
      163. 163. 163. 163. 160. 138. 103. 90. 93. 57. 18. 3. 34. 119.
      207. 207. 207. 207. 207. 207. 207. 207. 163. 117. 41. 13. 17. 12.
      3. 17. 84. 157. 207. 207. 207. 207. 149. 128. 114. 117. 72. 25. 3.
      28. 105. 237. 207. 207. 237. 237. 148. 129. 126. 144. 163. 237.
      247. 163. 82. 18. 9. 46. 135. 255. 237. 237. 247. 247. 247. 237.
      237. 237. 237. 247. 152. 121. 59. 36. 54. 112. 163. 237. 237. 237.
      237. 237. 237. 237. 237. 237. 237. 237. 207. 160. 157. 157. 86.
      20. 6. 43. 132. 247. 207. 207. 207. 207. 153. 139. 133. 144. 160.
      207. 207. 207. 124. 40. 8. 26. 96. 163. 207. 247. 255. 255. 255.
      255. 91. 23. 19. 74. 132. 75. 24. 12. 49. 139. 247. 207. 207. 207.
      207. 207. 207. 207. 207. 207. 163. 207. 207. 207. 237. 237. 255.
      120. 30. 4. 33. 117. 207. 207. 207. 207. 207. 207. 207. 237. 141.
      63. 25. 30. 56. 42. 8. 17. 82. 155. 207. 207. 207. 207. 237. 247.
      247. 255. 121. 36. 4. 28. 103. 237. 207. 207. 237. 237. 237. 255.
      255. 247. 237. 237. 247. 139. 45. 8. 20. 85. 153. 237. 237. 237.
      247. 237. 163. 157. 207. 237. 160. 207. 151. 120. 59. 40. 55. 108.
      160. 237. 207. 163. 207. 237. 237. 237. 237. 237. 237. 237. 237.
      237. 237. 207. 90. 22. 6. 42. 131. 247. 207. 207. 207. 207. 207.
      237. 237. 237. 207. 207. 207. 141. 60. 18. 10. 45. 133. 237. 157.
      133. 98. 92. 91. 87. 45. 13. 19. 50. 49. 22. 8. 11. 49. 138. 247.
      207. 207. 207. 207. 207. 207. 207. 207. 207. 207. 207. 207. 207.
      207. 207. 255. 119. 30. 5. 31. 114. 207. 207. 207. 207. 207. 207.
      207. 157. 100. 41. 28. 61. 129. 55. 10. 16. 80. 155. 207. 207.
      207. 207. 207. 207. 207. 255. 117. 35. 4. 28. 100. 207. 207. 207.
      237. 237. 237. 237. 237. 237. 237. 237. 163. 96. 25. 6. 39. 126.
      237. 237. 237. 237. 237. 157. 134. 124. 136. 144. 131. 126. 131.
      119. 70. 52. 53. 98. 157. 153. 147. 148. 149. 153. 237. 237. 237.
      237. 237. 237. 237. 237. 237. 207. 86. 22. 6. 43. 131. 247. 207.
      207. 207. 207. 207. 207. 207. 207. 207. 237. 153. 86. 26. 9. 29.
      92. 153. 247. 149. 66. 28. 20. 21. 21. 13. 7. 22. 52. 48. 22. 9.
      11. 49. 139. 247. 207. 207. 207. 207. 207. 207. 207. 207. 207.
      207. 207. 207. 207. 207. 207. 247. 119. 30. 4. 31. 114. 207. 207.
      207. 207. 207. 207. 163. 135. 55. 30. 45. 120. 144. 53. 10. 17.
      82. 155. 207. 207. 207. 207. 207. 207. 207. 255. 117. 35. 5. 29.
      100. 207. 207. 207. 237. 237. 237. 237. 237. 237. 237. 237. 148.
      56. 9. 11. 59. 150. 247. 237. 207. 237. 237. 141. 84. 59. 94. 121.
      91. 66. 86. 108. 77. 74. 47. 94. 153. 144. 134. 132. 129. 141.
      207. 237. 237. 237. 237. 237. 237. 237. 237. 207. 86. 21. 6. 42.
      132. 247. 207. 207. 207. 207. 207. 207. 207. 207. 207. 155. 105.
      36. 9. 21. 74. 147. 237. 247. 143. 49. 12. 12. 31. 43. 43. 43. 55.
      112. 134. 74. 25. 12. 49. 139. 247. 207. 207. 207. 207. 207. 207.
      207. 207. 207. 207. 207. 207. 207. 207. 207. 255. 119. 29. 3. 31.
      114. 207. 207. 207. 207. 207. 207. 148. 84. 35. 37. 87. 152. 148.
      51. 9. 16. 82. 155. 207. 207. 207. 207. 207. 207. 207. 255. 117.
      33. 5. 28. 103. 237. 207. 237. 237. 237. 237. 237. 237. 237. 237.
      207. 120. 36. 5. 28. 108. 237. 237. 237. 237. 237. 237. 124. 47.
      42. 77. 105. 75. 46. 59. 96. 70. 55. 47. 94. 155. 135. 103. 82.
      91. 134. 237. 237. 237. 237. 237. 237. 237. 237. 237. 237. 90. 23.
      7. 42. 131. 247. 207. 207. 207. 207. 207. 207. 207. 207. 237. 123.
      45. 11. 13. 47. 133. 163. 207. 247. 147. 50. 13. 26. 87. 134. 135.
      135. 141. 153. 247. 117. 35. 12. 47. 138. 237. 207. 207. 207. 207.
      207. 207. 207. 207. 207. 207. 207. 207. 207. 207. 207. 255. 120.
      30. 3. 30. 110. 163. 207. 207. 207. 207. 163. 114. 43. 27. 55.
      132. 237. 148. 52. 9. 15. 78. 153. 207. 207. 207. 207. 207. 207.
      207. 255. 120. 36. 4. 27. 98. 207. 237. 237. 237. 237. 237. 237.
      237. 237. 247. 155. 80. 17. 8. 46. 139. 247. 237. 237. 237. 237.
      247. 123. 45. 30. 45. 55. 45. 44. 75. 108. 70. 59. 51. 103. 157.
      134. 85. 57. 91. 148. 247. 237. 237. 237. 237. 237. 237. 237. 237.
      207. 91. 24. 7. 41. 130. 247. 207. 207. 207. 207. 207. 207. 207.
      237. 136. 48. 13. 10. 43. 117. 163. 207. 207. 247. 147. 50. 12.
      31. 114. 207. 237. 247. 237. 207. 255. 119. 36. 12. 46. 135. 237.
      207. 207. 207. 207. 207. 207. 207. 207. 207. 207. 207. 207. 207.
      207. 207. 255. 121. 31. 3. 29. 108. 163. 207. 207. 207. 237. 140.
      52. 22. 38. 105. 157. 255. 149. 53. 9. 15. 82. 155. 237. 207. 207.
      207. 207. 207. 207. 255. 117. 35. 4. 28. 98. 207. 237. 237. 237.
      237. 237. 237. 237. 237. 255. 132. 44. 8. 23. 86. 160. 247. 237.
      237. 237. 237. 255. 141. 59. 29. 23. 24. 28. 52. 116. 120. 65. 59.
      55. 112. 207. 149. 121. 108. 134. 160. 237. 237. 237. 237. 237.
      237. 237. 237. 237. 207. 91. 23. 6. 40. 130. 247. 207. 207. 207.
      207. 207. 207. 237. 147. 70. 18. 8. 33. 96. 152. 207. 207. 207.
      247. 147. 50. 13. 33. 117. 247. 255. 255. 255. 255. 255. 123. 36.
      12. 46. 135. 237. 207. 207. 207. 207. 207. 207. 207. 207. 207.
      207. 207. 207. 207. 207. 207. 255. 121. 32. 4. 29. 108. 163. 207.
      207. 207. 157. 93. 27. 12. 42. 98. 130. 130. 108. 41. 7. 12. 51.
      120. 141. 163. 207. 207. 207. 207. 207. 255. 119. 35. 4. 28. 98.
      207. 237. 237. 237. 237. 237. 237. 237. 247. 237. 92. 24. 7. 41.
      128. 237. 237. 237. 237. 237. 237. 255. 155. 103. 49. 34. 32. 45.
      93. 138. 123. 65. 54. 57. 116. 207. 207. 160. 157. 207. 237. 237.
      237. 237. 237. 237. 237. 237. 237. 247. 247. 91. 24. 5. 40. 130.
      247. 207. 207. 207. 207. 207. 237. 150. 84. 25. 7. 25. 87. 151.
      207. 207. 207. 207. 247. 148. 52. 13. 26. 85. 132. 134. 134. 133.
      134. 136. 88. 27. 11. 46. 135. 237. 207. 207. 207. 207. 207. 207.
      207. 207. 207. 207. 207. 207. 207. 207. 207. 247. 121. 32. 3. 29.
      110. 163. 207. 207. 237. 141. 51. 10. 9. 25. 40. 43. 37. 27. 11.
      2. 4. 14. 33. 82. 151. 207. 207. 207. 207. 207. 255. 119. 35. 4.
      28. 100. 237. 237. 237. 237. 237. 237. 237. 237. 247. 147. 49. 9.
      14. 68. 150. 237. 237. 237. 237. 237. 247. 247. 207. 144. 116. 85.
      80. 103. 143. 151. 123. 72. 70. 55. 114. 207. 237. 247. 237. 237.
      237. 237. 237. 237. 237. 237. 237. 237. 237. 247. 247. 93. 24. 6.
      38. 128. 247. 207. 207. 207. 207. 207. 207. 110. 37. 9. 19. 59.
      140. 207. 207. 207. 207. 207. 237. 153. 72. 19. 11. 26. 37. 39.
      39. 39. 39. 39. 28. 10. 9. 46. 134. 237. 207. 207. 207. 207. 207.
      207. 207. 207. 207. 207. 207. 207. 207. 207. 207. 255. 123. 34. 3.
      28. 105. 163. 207. 207. 237. 140. 53. 18. 18. 26. 30. 29. 24. 14.
      7. 2. 2. 8. 22. 66. 150. 207. 207. 207. 207. 207. 255. 120. 36. 3.
      26. 96. 237. 237. 237. 237. 237. 237. 237. 237. 237. 121. 32. 4.
      28. 112. 207. 237. 237. 237. 237. 237. 247. 247. 247. 207. 151.
      139. 138. 148. 207. 155. 126. 66. 53. 52. 116. 237. 237. 237. 237.
      237. 237. 237. 237. 237. 237. 237. 237. 237. 237. 247. 247. 93.
      25. 6. 38. 128. 247. 207. 207. 207. 207. 163. 129. 45. 12. 13. 49.
      134. 163. 160. 160. 160. 163. 207. 207. 207. 126. 51. 27. 22. 22.
      22. 22. 22. 23. 23. 15. 8. 9. 46. 134. 237. 207. 207. 207. 207.
      207. 207. 207. 207. 207. 207. 207. 207. 207. 207. 207. 255. 123.
      34. 3. 28. 105. 163. 207. 207. 207. 152. 120. 82. 78. 90. 92. 91.
      87. 66. 32. 5. 8. 38. 82. 130. 160. 207. 207. 207. 207. 207. 255.
      119. 35. 4. 27. 98. 237. 237. 237. 237. 237. 237. 237. 237. 151.
      72. 14. 9. 48. 144. 247. 237. 237. 237. 237. 237. 247. 247. 247.
      247. 255. 255. 247. 255. 255. 155. 126. 63. 54. 57. 116. 207. 237.
      237. 237. 237. 237. 237. 237. 237. 237. 237. 237. 237. 237. 247.
      247. 93. 25. 6. 39. 126. 247. 207. 207. 237. 237. 134. 54. 15. 5.
      11. 40. 63. 68. 68. 68. 66. 87. 132. 160. 207. 157. 135. 100. 91.
      91. 90. 90. 91. 92. 93. 55. 22. 10. 46. 133. 237. 207. 207. 207.
      207. 207. 207. 207. 207. 207. 207. 207. 207. 207. 207. 207. 255.
      123. 34. 4. 28. 105. 163. 207. 207. 207. 207. 163. 157. 157. 163.
      160. 163. 163. 143. 51. 9. 14. 72. 152. 207. 207. 207. 207. 207.
      207. 207. 255. 119. 36. 4. 27. 98. 237. 237. 237. 237. 237. 237.
      237. 247. 129. 42. 7. 23. 88. 160. 247. 237. 237. 237. 237. 247.
      247. 247. 247. 247. 255. 255. 255. 255. 255. 157. 126. 63. 56. 55.
      116. 163. 237. 237. 237. 237. 237. 237. 237. 237. 237. 237. 237.
      237. 237. 237. 247. 94. 26. 8. 40. 129. 237. 207. 207. 237. 247.
      103. 30. 3. 2. 2. 8. 10. 10. 10. 11. 11. 26. 84. 153. 207. 207.
      237. 237. 207. 207. 207. 207. 207. 207. 255. 132. 52. 36. 68. 143.
      207. 207. 207. 207. 207. 207. 207. 207. 207. 207. 207. 207. 207.
      207. 207. 207. 255. 126. 37. 8. 33. 112. 163. 207. 207. 207. 207.
      207. 207. 207. 207. 207. 207. 237. 149. 57. 12. 20. 82. 153. 237.
      207. 207. 207. 207. 207. 207. 255. 126. 42. 10. 34. 108. 237. 237.
      237. 237. 237. 237. 237. 237. 96. 30. 13. 45. 130. 247. 237. 237.
      237. 237. 237. 247. 247. 247. 247. 247. 255. 255. 255. 255. 255.
      157. 128. 59. 43. 52. 116. 207. 237. 237. 237. 237. 237. 237. 237.
      237. 237. 237. 237. 237. 237. 237. 255. 128. 52. 38. 65. 139. 247.
      207. 207. 207. 247. 128. 53. 35. 31. 31. 31. 31. 33. 33. 34. 36.
      45. 103. 160. 207. 207. 207. 207. 207. 207. 207. 207. 207. 207.
      207. 153. 131. 116. 135. 157. 207. 207. 207. 207. 207. 207. 207.
      207. 207. 207. 207. 207. 207. 207. 207. 207. 237. 141. 77. 46. 70.
      134. 163. 207. 207. 207. 207. 207. 207. 207. 207. 207. 207. 237.
      155. 100. 48. 54. 120. 160. 207. 207. 207. 207. 207. 207. 207.
      247. 143. 90. 54. 85. 138. 237. 237. 237. 237. 237. 237. 247. 207.
      128. 74. 68. 117. 153. 247. 237. 237. 237. 237. 237. 247. 247.
      237. 247. 247. 255. 255. 255. 255. 255. 157. 128. 59. 39. 54. 117.
      207. 237. 237. 237. 237. 237. 237. 237. 237. 237. 237. 237. 237.
      237. 237. 237. 155. 138. 131. 143. 157. 207. 207. 207. 207. 207.
      153. 139. 129. 126. 128. 124. 124. 126. 128. 126. 128. 134. 151.
      163. 207. 207. 207. 207. 207. 207. 207. 207. 207. 207. 207. 207.
      237. 237. 207. 207. 207. 207. 207. 207. 207. 207. 207. 207. 207.
      207. 207. 207. 207. 207. 207. 207. 207. 160. 149. 143. 150. 160.
      207. 207. 207. 207. 207. 207. 207. 207. 207. 207. 207. 207. 163.
      153. 144. 147. 155. 207. 207. 207. 207. 207. 207. 207. 207. 207.
      163. 157. 151. 155. 207. 237. 237. 237. 237. 237. 237. 237. 237.
      163. 155. 157. 207. 207. 237. 237. 237. 237. 237. 237. 247. 247.
      237. 247. 247. 255. 255. 255. 255. 255. 157. 128. 61. 40. 52. 116.
      207. 255. 247. 255. 255. 255. 255. 255. 255. 255. 255. 255. 255.
      255. 255. 255. 255. 247. 247. 247. 237. 237. 237. 237. 237. 237.
      237. 247. 247. 247. 255. 247. 255. 237. 237. 247. 237. 237. 237.
      207. 207. 207. 207. 207. 207. 207. 207. 207. 207. 207. 207. 207.
      207. 207. 207. 207. 207. 207. 207. 207. 207. 207. 207. 207. 207.
      207. 207. 207. 207. 207. 207. 207. 207. 207. 207. 207. 207. 207.
      207. 207. 207. 207. 207. 207. 207. 207. 207. 207. 237. 237. 237.
      237. 237. 237. 237. 237. 237. 237. 237. 237. 237. 237. 207. 237.
      207. 207. 247. 255. 255. 255. 255. 255. 255. 255. 255. 255. 255.
      255. 255. 255. 255. 247. 255. 255. 255. 255. 255. 255. 255. 255.
      255. 247. 255. 247. 255. 247. 247. 247. 140. 94. 58. 44. 47. 75.
      126. 140. 143. 147. 148. 148. 147. 147. 147. 144. 144. 144. 143.
      141. 141. 143. 147. 144. 143. 147. 147. 147. 144. 147. 148. 148.
      149. 148. 144. 143. 143. 144. 150. 153. 155. 155. 153. 151. 149.
      147. 144. 144. 148. 148. 144. 144. 147. 147. 144. 147. 147. 147.
      147. 147. 147. 147. 144. 144. 147. 147. 143. 143. 143. 143. 141.
      140. 140. 139. 139. 139. 139. 138. 138. 138. 138. 138. 136. 136.
      138. 138. 136. 136. 136. 135. 138. 138. 140. 143. 141. 140. 139.
      138. 138. 139. 139. 138. 134. 133. 132. 129. 123. 130. 141. 149.
      150. 148. 138. 131. 132. 132. 131. 131. 132. 130. 129. 128. 128.
      126. 124. 124. 124. 124. 126. 126. 126. 124. 124. 123. 123. 123.
      121. 121. 121. 120. 119. 112. 114. 96. 65. 55. 58. 49. 58. 53. 55.
      58. 60. 66. 77. 78. 80. 84. 80. 77. 77. 70. 65. 63. 63. 65. 66.
      70. 74. 74. 74. 74. 77. 80. 77. 78. 84. 82. 77. 74. 63. 56. 63.
      85. 90. 88. 86. 68. 55. 58. 70. 74. 78. 80. 80. 82. 82. 82. 80.
      80. 82. 80. 80. 80. 80. 80. 80. 80. 80. 82. 82. 82. 82. 78. 75.
      74. 72. 72. 74. 75. 77. 75. 70. 68. 68. 68. 66. 68. 72. 74. 72.
      72. 72. 68. 66. 75. 87. 92. 91. 88. 84. 78. 75. 77. 80. 80. 72.
      63. 59. 52. 49. 63. 88. 93. 94. 90. 63. 55. 59. 61. 63. 65. 65.
      63. 63. 63. 63. 63. 60. 61. 61. 61. 60. 60. 60. 58. 58. 58. 56.
      55. 53. 53. 53. 50. 47. 45. 45. 44. 47. 66. 82. 55. 92. 93. 72.
      55. 52. 55. 60. 65. 72. 75. 72. 70. 72. 68. 65. 66. 65. 61. 61.
      68. 77. 72. 68. 70. 77. 77. 70. 68. 80. 82. 77. 70. 58. 48. 49.
      58. 61. 60. 60. 50. 44. 47. 59. 66. 70. 72. 72. 72. 74. 70. 70.
      72. 68. 65. 68. 68. 66. 65. 66. 65. 66. 68. 72. 70. 68. 66. 63.
      61. 59. 61. 66. 72. 74. 72. 70. 68. 68. 66. 65. 63. 65. 68. 70.
      68. 65. 63. 63. 70. 84. 90. 91. 88. 85. 82. 82. 82. 84. 84. 80.
      75. 70. 63. 61. 77. 90. 90. 88. 84. 65. 63. 68. 72. 74. 82. 80.
      77. 80. 85. 86. 87. 87. 87. 88. 88. 85. 80. 78. 77. 77. 78. 77.
      75. 74. 75. 78. 75. 66. 63. 60. 70. 92. 98. 75. 45. 56. 91. 93.
      91. 88. 87. 87. 87. 87. 86. 85. 85. 86. 90. 93. 93. 90. 84. 77.
      80. 84. 84. 82. 85. 91. 93. 90. 87. 90. 90. 87. 87. 88. 84. 82.
      82. 78. 75. 77. 70. 70. 82. 90. 87. 86. 84. 80. 82. 82. 80. 78.
      78. 80. 80. 74. 70. 70. 75. 70. 75. 78. 70. 60. 57. 54. 52. 52.
      49. 51. 51. 49. 47. 47. 47. 48. 49. 50. 49. 47. 47. 48. 49. 48.
      48. 49. 49. 50. 54. 63. 75. 80. 78. 77. 78. 84. 88. 91. 91. 91.
      90. 90. 85. 82. 85. 85. 78. 74. 72. 63. 59. 58. 56. 55. 56. 58.
      57. 57. 57. 59. 61. 63. 60. 59. 58. 55. 50. 50. 53. 54. 54. 54.
      55. 55. 57. 58. 59. 59. 57. 58. 60. 63. 52. 38. 23. 24. 32. 38.
      42. 43. 43. 43. 42. 42. 41. 41. 41. 41. 43. 43. 43. 40. 37. 36.
      35. 36. 36. 37. 38. 43. 44. 43. 41. 39. 38. 38. 40. 42. 42. 42.
      40. 38. 38. 37. 36. 38. 43. 43. 41. 39. 37. 36. 36. 37. 37. 36.
      36. 37. 37. 35. 32. 33. 36. 34. 35. 36. 30. 26. 26. 24. 22. 22.
      22. 24. 24. 18. 14. 14. 14. 14. 15. 15. 15. 14. 15. 17. 17. 16.
      17. 17. 17. 19. 24. 29. 37. 38. 37. 35. 32. 31. 34. 36. 36. 36.
      35. 34. 33. 30. 30. 29. 28. 26. 26. 24. 22. 22. 21. 20. 19. 21.
      20. 20. 19. 20. 22. 22. 20. 19. 18. 17. 15. 15. 17. 17. 17. 17.
      17. 18. 18. 19. 19. 20. 19. 18. 19. 21. 18. 13. 11.</_>
    <_>
      102. 102. 102. 102. 100. 97. 100. 100. 97. 97. 97. 95. 97. 100.
      100. 97. 100. 97. 97. 100. 100. 97. 97. 100. 100. 100. 100. 100.
      100. 100. 100. 95. 95. 100. 95. 95. 97. 97. 97. 97. 97. 95. 97.
      97. 97. 100. 97. 97. 100. 100. 100. 100. 100. 100. 100. 100. 100.
      100. 100. 100. 100. 100. 102. 102. 104. 106. 102. 102. 104. 102.
      102. 102. 104. 106. 106. 104. 104. 104. 110. 110. 114. 114. 110.
      114. 114. 114. 117. 117. 117. 117. 117. 117. 121. 117. 114. 114.
      114. 110. 110. 114. 114. 110. 110. 114. 114. 114. 114. 114. 114.
      114. 114. 117. 114. 117. 114. 121. 121. 117. 117. 121. 121. 121.
      121. 123. 123. 123. 123. 123. 126. 126. 126. 129. 129. 129. 129.
      129. 129. 136. 136. 133. 136. 136. 102. 56. 160. 154. 154. 150.
      146. 146. 146. 143. 143. 143. 139. 139. 143. 143. 139. 133. 136.
      133. 133. 133. 129. 126. 126. 126. 126. 126. 121. 117. 117. 121.
      121. 110. 106. 114. 114. 114. 117. 114. 114. 114. 114. 114. 114.
      114. 114. 114. 114. 106. 114. 114. 110. 114. 114. 110. 110. 110.
      110. 110. 110. 106. 106. 106. 106. 106. 110. 110. 106. 106. 106.
      106. 104. 102. 102. 100. 97. 95. 97. 100. 106. 106. 106. 106. 106.
      106. 106. 106. 106. 106. 106. 106. 106. 106. 110. 110. 110. 114.
      114. 114. 110. 110. 110. 110. 110. 114. 114. 110. 114. 117. 110.
      110. 114. 114. 117. 117. 117. 121. 123. 117. 121. 123. 123. 121.
      110. 102. 106. 121. 123. 126. 126. 129. 126. 126. 129. 126. 129.
      129. 129. 133. 133. 133. 129. 136. 114. 62. 160. 154. 154. 154.
      154. 154. 154. 154. 154. 146. 146. 146. 146. 143. 143. 139. 121.
      90. 87. 94. 121. 133. 129. 129. 129. 126. 123. 126. 110. 92. 80.
      71. 67. 76. 86. 97. 117. 121. 121. 121. 117. 117. 121. 121. 121.
      117. 117. 117. 117. 117. 117. 117. 117. 114. 114. 114. 114. 114.
      114. 114. 114. 114. 110. 114. 114. 114. 114. 110. 117. 114. 106.
      94. 83. 73. 59. 58. 65. 79. 91. 106. 117. 114. 114. 114. 97. 84.
      77. 76. 75. 75. 75. 75. 75. 75. 75. 76. 86. 106. 117. 114. 114.
      117. 117. 117. 123. 121. 114. 87. 71. 64. 82. 104. 126. 126. 126.
      126. 126. 126. 129. 123. 94. 77. 58. 51. 53. 63. 81. 104. 129.
      136. 139. 133. 133. 136. 139. 139. 139. 136. 139. 139. 139. 143.
      117. 62. 174. 174. 167. 167. 167. 167. 160. 160. 160. 160. 154.
      154. 150. 150. 154. 136. 82. 50. 44. 68. 104. 143. 139. 136. 136.
      136. 133. 117. 83. 54. 37. 27. 25. 31. 47. 70. 93. 123. 126. 123.
      123. 121. 114. 110. 104. 104. 104. 104. 104. 102. 102. 100. 100.
      110. 121. 121. 121. 121. 121. 121. 121. 121. 123. 121. 121. 121.
      121. 121. 121. 117. 93. 72. 45. 32. 24. 22. 28. 39. 57. 86. 121.
      123. 121. 123. 87. 51. 33. 32. 31. 32. 31. 31. 33. 33. 31. 35. 54.
      92. 129. 123. 123. 123. 123. 123. 126. 126. 90. 55. 29. 30. 62.
      106. 136. 133. 133. 133. 133. 136. 129. 87. 56. 35. 21. 14. 16.
      23. 39. 64. 93. 139. 139. 139. 139. 143. 143. 146. 146. 146. 146.
      146. 146. 150. 123. 62. 190. 181. 174. 174. 167. 167. 167. 167.
      167. 167. 160. 154. 154. 154. 160. 94. 50. 12. 20. 58. 121. 154.
      143. 143. 143. 143. 129. 81. 42. 18. 2. 9. 12. 7. 11. 28. 58. 94.
      133. 133. 129. 91. 67. 55. 54. 53. 53. 53. 53. 52. 52. 52. 53. 70.
      93. 129. 126. 126. 126. 126. 129. 129. 126. 129. 129. 129. 129.
      126. 126. 102. 67. 34. 11. 7. 18. 19. 12. 5. 22. 52. 90. 133. 126.
      129. 85. 38. 5. 5. 5. 7. 7. 5. 1. 2. 2. 12. 45. 90. 139. 133. 133.
      133. 133. 133. 133. 121. 70. 30. 5. 33. 78. 136. 139. 139. 139.
      136. 136. 133. 87. 49. 20. 2. 18. 24. 24. 15. 2. 25. 56. 102. 146.
      143. 143. 143. 150. 150. 150. 150. 150. 154. 154. 154. 129. 64.
      200. 190. 190. 190. 181. 181. 181. 181. 181. 174. 174. 167. 167.
      167. 150. 77. 32. 9. 37. 85. 154. 160. 160. 150. 150. 150. 93. 50.
      15. 11. 31. 48. 52. 43. 20. 5. 33. 75. 129. 143. 133. 80. 37. 16.
      18. 15. 16. 16. 16. 14. 15. 15. 16. 41. 81. 143. 136. 133. 133.
      133. 139. 136. 136. 136. 136. 139. 136. 133. 133. 85. 40. 9. 16.
      37. 55. 59. 49. 26. 9. 26. 67. 121. 133. 136. 95. 59. 45. 45. 46.
      47. 47. 40. 22. 5. 2. 23. 56. 110. 146. 136. 139. 143. 143. 139.
      136. 91. 47. 16. 20. 53. 110. 150. 146. 146. 146. 146. 143. 104.
      57. 22. 9. 30. 53. 73. 70. 48. 24. 5. 30. 77. 139. 150. 150. 150.
      154. 154. 160. 154. 154. 160. 160. 160. 129. 65. 200. 200. 200.
      208. 190. 190. 190. 190. 190. 190. 181. 181. 174. 181. 104. 50.
      18. 22. 58. 133. 181. 167. 167. 160. 160. 143. 76. 27. 7. 38. 77.
      106. 126. 91. 51. 20. 14. 49. 100. 150. 143. 85. 45. 27. 30. 29.
      28. 28. 28. 28. 26. 19. 1. 33. 78. 150. 146. 143. 143. 143. 143.
      143. 143. 143. 143. 143. 143. 143. 126. 68. 22. 9. 40. 79. 126.
      139. 97. 58. 24. 9. 46. 91. 143. 143. 139. 117. 100. 102. 102.
      104. 102. 73. 33. 1. 16. 49. 89. 146. 146. 146. 146. 146. 143.
      150. 126. 71. 25. 7. 39. 82. 150. 154. 150. 150. 150. 150. 146.
      84. 38. 5. 26. 63. 114. 167. 154. 93. 52. 16. 11. 51. 104. 174.
      154. 154. 154. 160. 160. 160. 160. 167. 167. 160. 136. 67. 218.
      218. 218. 208. 208. 200. 200. 200. 200. 200. 200. 200. 200. 160.
      80. 31. 12. 42. 86. 181. 181. 181. 174. 174. 181. 133. 58. 20. 20.
      58. 133. 174. 174. 167. 82. 36. 2. 37. 85. 154. 154. 123. 86. 78.
      79. 79. 78. 78. 79. 79. 72. 42. 11. 33. 80. 154. 150. 150. 146.
      146. 146. 150. 150. 150. 150. 150. 150. 150. 114. 55. 16. 19. 58.
      121. 154. 146. 143. 87. 39. 5. 35. 83. 150. 146. 150. 154. 167.
      160. 160. 154. 110. 55. 22. 11. 37. 81. 143. 154. 150. 154. 154.
      154. 150. 154. 91. 48. 12. 21. 58. 117. 160. 154. 160. 160. 160.
      160. 146. 75. 28. 2. 41. 90. 167. 154. 160. 143. 77. 26. 5. 43.
      90. 181. 167. 167. 167. 167. 167. 167. 167. 167. 160. 160. 133.
